0.0126667 0.0573333 0.0373333 0.062 0.0366667 0.00266667 0.054 0.0273333 0.00866667 0.02 0.00733333 0.0286667 0.0286667 0.00933333 0.0453333 0.04 0.02 0.014 0.004 0.036 0.034 0.010708 0.00137467 0.00608938 0.020756 0.0433321 0.0386666 0.0619999 0.0213333 0.0426667 0.0326667 0.032 0.0533333 0.0133333 0.0246667 0.0253333 0.0646667 0.0293333 0.0546667 0.004 0.0546667 0.0553333 0.0326667 0.0346667 0.0433333 0.00533333 0.00733333 0.004 0.0566667 0.012 0.01 0.016 0.0546667 0.0613333 0.0306667 0.0366667 0.0313333 0.0173333 0.0306666 0.0393332 5.75723e-05 0.0527242 0.0348561 0.0481895 0.016406 0.00440601 0.0525646 0.0525913 0.0299246 0.0343434 0.0450101 0.0652459 0.0405792 0.055308 0.0326414 0.0524525 0.0408136 0.0441469 0.0166314 0.00729809 0.0292459 0.0372459 0.0543085 0.00897519 0.00694008 0.00418753 0.0341875 0.0313862 0.0540528 0.0606622 0.0133289 0.0080002 0.0626667 0.01 0.0126667 0.0126667 0.0526667 0.036 0.00666667 0.0126667 0.0313333 0.042 0.0493333 0 0.0526667 0.066 0.0153333 0.0293333 0.0426666 0.0139999 0.00405757 0.00672424 0.0628561 0.0615228 0.018406 0.058406 0.0265646 0.00525793 0.0465913 0.0130101 0.00567678 0.0399126 0.0245792 0.055308 0.055308 0.0384525 0.0328136 0.0381469 0.0652981 0.0232981 0.0525792 0.0312459 0.0209752 0.00164185 0.000940082 0.0475209 0.0168542 0.0200528 0.0660528 0.0119956 0.0299956 0.0320002 0.0333333 0.00533333 0.0346667 0.03 0.0353333 0.0613333 0.008 0.0573333 0.0106667 0.0106667 0.062 0.0420003 0.0413336 0.0126676 0.0280009 0.0280297 0.000696383 0.0163391 0.0137291 0.0543957 0.0293242 0.0259909 0.0388029 0.0208029 0.0532048 0.0058144 0.0264811 -0.00158526 0.0337481 0.0333198 0.0246531 0.0118337 0.0245004 -0.0016305 0.0501067 0.0107734 0.0494981 0.0621648 0.0493325 0.0479992 0.00644869 0.0344487 0.0608821 0.062697 0.0360303 0.0638459 0.0391792 0.00762507 0.0496251 0.0437426 0.0551746 0.0358413 0.0325691 0.0605691 0.00266667 0.0633333 0.0106667 0.046 0.04 0.0273333 0.0353333 0.0373336 0.0420003 0.0546676 0.0506676 0.0620297 0.0606964 0.0310058 0.00239575 0.0163957 0.00532421 0.0233242 0.0161363 0.000136274 0.0545381 0.0191477 0.0458144 0.0577481 0.00441474 0.0473198 0.0506531 0.00383372 -0.00816628 -0.00296383 0.0287734 0.0261067 0.0281648 0.0488314 0.0599992 0.0553325 0.00778203 0.0184487 0.0655487 0.00269697 0.0560303 0.0458459 0.0531792 0.0276251 0.0349584 0.00574255 0.0545079 0.0118413 0.0365691 0.0299024 0.0106667 0.038 0.004 0.038 0.0213333 0.0633333 0.0293333 0.018668 0.0273347 0.00805524 0.0227219 0.0164911 0.0204911 0.058967 0.0258709 0.0532043 0.0194127 0.0540793 0.000924779 0.0442581 0.0442529 0.0425822 0.0139156 0.0207363 0.0467363 0.0209273 0.0089273 0.0128047 0.0594714 0.0499208 0.0629015 0.0309015 -0.00399901 0.0266677 0.0181224 0.0401224 0.0470582 0.0597248 0.0520621 0.0424307 -0.002236 0.0120841 0.00608409 0.0151784 0.027845 0.0484354 0.048629 0.028629 0.0180109 0.0440109 0.012077 0.00941029 0.00933333 0.0193333 0.0246667 0.052 0.054 0.0113347 0.00200134 0.0220552 0.0227219 0.0418245 0.0331578 0.0416337 0.0198709 0.0432043 0.0300793 0.0594127 0.0475914 0.0242581 0.0455862 0.0272489 0.00524891 0.0347363 0.0327363 0.0669273 0.0342606 0.046138 0.0634714 0.0599208 0.0622348 0.0422348 0.0346677 0.0393343 0.0347891 0.0141224 0.0197248 0.00972484 0.0367288 0.0450973 -0.00490267 0.00808409 -0.00858258 0.000511716 0.00251172 0.019102 0.00529564 0.00262897 0.0560109 0.0140109 0.0434103 0.0447436 0.0193333 0.0186667 0.0193333 0.0453343 0.0240009 0.0620068 0.0333402 0.0633463 0.00867964 0.0539369 0.0192703 0.0626436 0.0304704 0.0391371 0.0297202 0.0250536 0.0457913 0.0504579 0.0212268 0.036082 0.0514154 0.0628768 0.0115434 0.0750959 0.0197625 0.0316031 0.0542697 -0.0101649 0.00655015 0.0118835 0.000550548 -0.0381161 -0.010616 -0.00261603 0.0213743 0.0193743 -0.0177377 9.71818e-05 -0.0385695 -0.0316444 -0.0316444 0.00387996 0.0112133 0.0334247 0.0679412 0.0392746 0.0545942 0.0345942 0.00789135 0.0358913 0.0460351 0.0500351 0.018 0.0313343 0.00600095 0.0200068 0.0566735 0.0493463 0.0313463 0.0212703 0.0526036 0.0666436 0.0511371 0.0504704 0.0123869 0.0110536 0.0477913 -0.000208724 0.0272268 0.060082 0.0407487 0.0548768 0.00621011 0.0370959 0.0157625 0.0456031 0.0242697 -0.0121649 0.00121682 -0.0141165 0.00121722 -0.0414495 -0.0172827 -0.0532827 -0.00662571 -0.033959 0.00626235 -0.00523615 -0.00390282 -0.0156444 -0.000977717 0.000546623 0.00387996 0.0227581 0.0532746 0.0686079 0.0359276 0.0485942 0.0492247 0.00922468 0.00336846 0.0560351 0.028 0.0553333 0.0586667 0.0606903 0.0446903 0.0602453 0.0155787 0.0189822 0.00898218 0.0364268 0.0115769 0.0322436 0.05385 0.0731834 0.0258088 0.0411422 0.0216655 0.00254247 0.0218758 0.00978978 0.0417898 -0.00239973 0.0242669 -0.000841303 0.060492 0.0306453 -0.0180718 0.00659489 0.000467478 -0.00619919 -0.0642868 -0.0636201 -0.0943194 -0.074986 -0.0566752 -0.0267982 -0.0407982 -0.0177966 0.0162034 0.0230715 0.0204048 0.0880697 0.0428776 0.0748776 0.0136645 0.0189978 0.0668243 0.019491 0.0346935 0.0400268 0.0113333 0.0406703 0.0240037 0.0123807 0.0583807 0.0493386 0.0600052 0.063336 0.0286693 0.0713433 0.0663032 0.0209698 0.0648242 0.0568242 -0.00368266 0.034984 0.0338594 0.0524912 0.0344912 0.0259058 0.0265725 0.027121 0.031121 -0.0353692 0.0166308 -0.00775214 -0.012328 0.0170054 -0.0392181 0.00478193 -0.0848342 -0.0421676 -0.0758626 -0.108529 -0.0754434 -0.0493519 -0.00601857 0.0130976 -0.0162358 0.01898 0.0136467 0.111651 0.0885108 0.0831775 0.0917231 0.0330564 0.0647533 0.0340866 0.0313423 0.0653423 0.048 0.0386703 0.0500037 0.0557141 0.0443807 0.0246719 0.0480052 0.027336 0.0580027 0.0386766 0.0683032 0.0169698 0.0408242 0.00615758 0.028984 -0.00368266 0.0258594 0.00982453 0.0251579 -0.0100942 0.0232392 -0.0302123 -0.0295456 -0.0240359 -0.00403587 -0.0084188 0.00167203 -0.00632797 -0.00988473 -0.0192181 -0.0521676 -0.0395009 -0.0985293 -0.0625293 -0.0447767 0.0139814 -0.0426852 -0.0035691 0.0130976 0.03498 0.0516467 0.0929839 0.125844 0.0825108 0.0630564 0.0843897 0.0194199 0.0100866 0.0466757 0.0193423 0.00998843 0.0389038 0.0415705 0.0164964 0.0344964 0.0171163 0.0524496 0.0146555 0.0406555 0.0629291 0.00240758 0.00107424 -0.0340478 0.0299522 -0.000425192 -0.0277585 0.0413579 -0.01839 0.0089433 -0.00211695 0.015883 -0.0452391 -0.0505725 -0.0880713 -0.092738 -0.0905148 -0.0639354 -0.0939354 -0.0212027 -0.024536 -0.0604115 -0.0250781 -0.0983797 -0.049713 -0.0423114 -0.0265312 -0.00119787 0.0401206 0.023454 0.0545313 0.0731979 0.132772 0.121354 0.140688 0.0997673 0.0831006 0.0533098 0.0446432 0.00969744 0.0630308 0.0586551 0.00690383 0.0322372 0.0438297 0.0178297 0.0437829 0.0624496 0.0206555 0.0446555 0.0469291 0.00774091 0.0484076 -0.0140478 -0.000714432 -0.0217585 -0.0170919 0.0226912 0.02761 -0.02039 0.00588305 -0.0207836 -0.0592391 -0.0312391 -0.070738 -0.0434046 -0.0651815 -0.0432687 -0.0719354 -0.020536 -0.040536 -0.0157448 -0.0290781 -0.0643797 -0.0443797 -0.0489781 -0.00119787 0.0268021 0.0167873 -0.014546 0.0391979 0.0738646 0.130106 0.135354 0.135354 0.0957673 0.0651006 0.0446432 0.0786432 0.0330308 0.0476974 0.0306892 0.0227598 0.0407598 0.017122 0.0204553 0.0555582 0.0108915 0.0169239 0.0629239 0.0559954 -0.00428441 -0.0209511 -0.0652706 -0.0166039 -0.0371083 -0.015775 -0.0562705 -0.0869187 -0.0889187 -0.0989546 -0.0656212 -0.139671 -0.149671 -0.0966337 -0.0966337 -0.0654935 -0.0809329 -0.130266 -0.0455719 -0.0369052 -0.0249221 -0.0409221 -0.0734774 -0.0448108 -0.0667322 -0.00210346 -0.00410346 -0.0149921 -0.0383255 0.017986 0.0286527 0.0480909 0.10495 0.0822834 0.0666893 0.053356 0.0415028 0.0555028 0.0184698 0.0164698 0.0413559 0.0174265 0.0114265 0.00445529 -0.00421138 -0.000441814 0.00355819 0.0609239 0.0342572 0.00132872 -0.0429511 -0.0209511 -0.0712706 -0.0226039 -0.0584417 -0.017775 -0.0202705 -0.0789187 -0.070252 -0.0836212 -0.0896212 -0.114338 -0.118338 -0.0973004 -0.117967 -0.0768268 -0.0869329 -0.1316 -0.0575719 -0.0642385 -0.0855888 -0.0742555 -0.0734774 -0.0741441 -0.0333989 -0.000770129 -0.0101035 -0.0343255 -0.0283255 0.043986 0.0486527 0.0614242 0.11495 0.132283 0.114023 0.0966893 0.0255028 0.0415028 0.00913651 0.0538032 0.0598474 0.00970296 0.0503696 0.00360598 0.033606 -0.00685406 0.00847927 -0.00657965 0.00475368 -0.00140467 -0.0394827 -0.0554827 -0.0425273 -0.0478606 -0.0879284 -0.0719284 -0.0545634 -0.134643 -0.127977 -0.116421 -0.134421 -0.121097 -0.117764 -0.127254 -0.0805875 -0.127719 -0.109984 -0.141984 -0.148918 -0.142918 -0.115972 -0.125305 -0.0935283 -0.0855283 -0.0935767 -0.0411881 -0.0451881 -0.0485256 -0.0751923 -0.0328992 -0.0575659 -0.0135513 0.0787143 0.0420477 0.0439507 0.0332841 0.0439539 0.0526206 0.060327 0.00366031 0.0451538 0.0309646 0.064298 0.00020179 0.0248685 0.0386189 0.0166189 0.0200303 -0.00996965 0.00778741 -0.075213 -0.0538796 -0.0364864 -0.0444864 -0.0951174 -0.0724507 -0.0559326 -0.0730708 -0.0610708 -0.0784735 -0.0304735 -0.0282116 -0.0588783 -0.0374559 -0.0187893 -0.0818197 -0.161573 -0.14424 -0.13769 -0.17969 -0.142965 -0.136298 -0.136407 -0.134407 -0.172978 -0.105656 -0.14499 -0.144819 -0.139486 -0.108196 -0.0648623 -0.0551607 0.04263 0.0272967 0.084429 0.0250956 0.0238425 0.0545092 0.0614437 0.0614437 0.0344871 0.0456313 0.00496464 0.0488685 -0.00579821 0.0432855 0.0292855 -0.021303 -0.00063632 -0.0375459 -0.075213 -0.029213 -0.0471531 -0.0324864 -0.0724507 -0.0984507 -0.0865993 -0.113737 -0.0884042 -0.0391401 -0.0271401 -0.0295449 -0.0335449 -0.0281226 0.00121072 -0.0624864 -0.0955733 -0.118907 -0.157023 -0.173023 -0.132298 -0.163631 -0.190407 -0.19174 -0.154978 -0.126323 -0.0983231 -0.0961525 -0.146153 -0.055529 -0.079529 -0.0471607 0.03863 0.01063 0.0790956 0.0290956 0.0298425 0.0118425 0.0234437 0.0614437 0.00195951 0.0586717 0.040005 0.0367029 0.0580363 0.00011784 0.00211784 0.0424333 -0.0182334 -0.0111029 -0.0427894 -0.00878943 -0.0603316 -0.0616649 -0.026354 -0.0510207 -0.0127584 0.0229357 -0.00439759 0.047628 0.093628 0.10407 0.0634038 0.0607283 0.0967283 -0.00154278 -0.0539156 -0.0739156 -0.0873282 -0.0673282 -0.119253 -0.137253 -0.15825 -0.13025 -0.187583 -0.178066 -0.178732 -0.163488 -0.136155 -0.0685807 -0.115914 -0.0164825 0.0102538 -0.0104128 0.0321998 0.0688665 0.0381856 0.0288522 0.0267109 4.42736e-05 0.0426262 0.056005 0.0166717 0.0220363 0.0313696 0.0114512 0.0234512 -0.00556669 -0.00956669 0.000897137 -0.0321228 -0.0414561 -0.0509983 -0.0256649 -0.070354 -0.0510207 -0.063425 -0.0150643 -0.0203976 0.065628 0.0529613 0.0734038 0.0394038 0.0520617 0.0667283 0.00245722 -0.110582 -0.0765823 -0.0673282 -0.0826615 -0.109253 -0.135253 -0.150917 -0.18225 -0.186916 -0.168732 -0.143399 -0.109488 -0.144155 -0.083914 -0.0952473 -0.0258158 -0.0297462 -0.0250795 0.0568665 0.0255331 0.0348522 0.0275189 0.0160443 0.0300443 0.0112775 0.0628502 0.0395169 0.0425113 0.00917799 0.0337709 0.0124376 0.0362761 0.0376094 0.0191727 0.0101202 -0.0412131 -0.0705498 -0.0205498 -0.046775 -0.040775 -0.0176343 0.0606276 0.069961 0.0919305 0.0892638 0.132538 0.164538 0.117959 0.0819586 0.0642545 0.0238329 0.0144996 -0.0673511 -0.0220178 -0.111489 -0.0534889 -0.144671 -0.154004 -0.21271 -0.132356 -0.17569 -0.143313 -0.11398 -0.10714 -0.0991397 -0.0464023 -0.0100455 -0.00271213 0.0401235 0.00479017 0.0299704 0.00530371 0.00197159 0.0573049 0.0566109 0.0128502 0.0421836 0.0545113 0.027178 0.0584376 0.0591042 0.0336094 0.0502761 -0.000160639 -0.000546449 -0.0338798 -0.0685498 -0.0458832 -0.0214417 -0.0441084 0.031699 0.063961 0.0786276 0.112597 0.142597 0.154538 0.107204 0.117292 0.114625 0.100255 0.0118329 -0.00950043 -0.0340178 -0.0620178 -0.0868222 -0.0594889 -0.110671 -0.159337 -0.217377 -0.138356 -0.159023 -0.13198 -0.14598 -0.0464731 -0.0544731 -0.0464023 -0.00804546 -0.0153788 0.0487902 -0.00320983 0.0433037 0.0593037 0.00397159 0.00797159 0.0239929 0.0228795 0.0568795 0.00304054 0.0403739 0.0151348 0.0391348 -0.00497126 0.0316954 0.0109779 -0.0289535 0.0190465 -0.0249595 0.0283739 0.0278913 -0.019442 -0.00657012 0.060216 0.0955493 0.165232 0.141232 0.188303 0.177637 0.128846 0.14818 0.0728796 -0.0530886 -0.042422 -0.0788833 -0.04755 -0.0286735 -0.0460069 -0.0728659 -0.0728659 -0.15406 -0.072103 -0.121436 -0.092622 -0.0872887 -0.054371 -0.0270377 -0.0182508 -0.0093122 0.0273545 0.00870986 0.0180432 0.0419456 0.0286123 0.0346587 0.0633254 0.0266596 0.00954612 0.0522128 0.0350405 0.0297072 0.0258014 0.00980145 0.0383621 -0.00163793 0.0183112 0.0123799 -0.000953459 -0.0122928 0.00104054 -0.015442 0.0112246 0.0174299 0.0595493 0.0935493 0.135899 0.149899 0.189637 0.149637 0.12618 0.13218 0.0688796 0.00824471 -0.0157553 -0.0742167 -0.0782167 -0.0606735 -0.0466735 -0.0561992 -0.0895326 -0.124727 -0.0734363 -0.128103 -0.0772887 -0.113289 -0.0637043 -0.0390377 -0.0389175 0.0206878 -0.0126455 0.0367099 -0.00329014 0.0326123 0.0159456 0.0419921 0.0653254 0.0460005 0.0105188 0.0158522 0.0225415 0.0418749 0.00756159 0.0588949 0.0191643 0.0158309 0.0332283 0.00501735 -0.0236493 -0.0434809 -0.0421475 -0.0223131 0.00235354 0.0128338 0.0780936 0.0920936 0.118497 0.11383 0.153488 0.150822 0.110648 0.105981 -0.00749849 -0.0789544 -0.0749544 -0.102615 -0.105948 -0.0682031 -0.0602031 -0.0791202 -0.0937868 -0.0956125 -0.0384401 -0.0591068 -0.0827097 -0.0633764 -0.0383815 -0.0203815 0.0186599 0.00316581 -0.00683419 0.0216139 0.0316139 0.0411485 0.0384818 0.0206705 0.0286705 0.0126668 0.0500637 6.36867e-05 0.0460389 0.0393723 0.0504791 0.0418124 -0.00839108 0.0169422 -0.0113389 -0.0427677 -0.0494344 -0.0611236 -0.072457 -0.039997 -0.0533304 -0.0397896 -0.0264775 -0.0378108 -0.0400015 0.00133186 0.0339319 0.0465986 0.0672273 0.0232273 -0.0753976 -0.095833 -0.127833 -0.131075 -0.121075 -0.0842183 -0.0982183 -0.0276749 -0.0870082 -0.00764469 -0.0394916 -0.00882497 -0.0260354 -0.0393687 -0.0135506 -0.0422173 0.00181049 0.0118323 -0.0148343 0.00190109 -0.00343225 0.0300305 0.0473638 0.043561 0.0562277 0.0166668 0.0560637 0.0567304 0.000705587 0.0140389 0.0231458 0.00247911 0.0316089 0.0189422 0.00666113 -0.064101 -0.0234344 -0.038457 -0.040457 -0.0826637 -0.047997 -0.0657896 -0.0364775 -0.0298108 0.0106652 -0.0333348 0.0685986 0.0605986 0.033894 0.0165607 -0.0820643 -0.1425 -0.127166 -0.120408 -0.0864085 -0.0735516 -0.0528849 -0.0803416 -0.0230082 -0.022978 -0.0414916 -0.0354916 -0.056702 -0.0580354 -0.0268839 -0.00688395 0.0391438 0.024499 0.00049899 0.00723442 0.0352344 0.0620305 0.0526972 0.00356101 0.015561 0.00733292 0.0121472 0.0154805 0.0513255 0.00865881 0.00970384 0.0377038 0.0312798 0.0286132 -0.0288588 -0.0643284 -0.0396617 -0.143139 -0.133139 -0.190306 -0.152973 -0.202013 -0.138081 -0.130081 -0.0967536 -0.0874203 -0.0788178 -0.0774845 -0.0557895 -0.0764561 -0.167719 -0.153203 -0.15587 -0.0832889 -0.0872889 -0.0354102 -0.0347435 -0.0049155 0.0210845 0.0408809 0.0176158 -0.00771755 0.0135236 -0.00180972 0.0393152 0.0153152 -0.00910715 -0.012716 0.0286173 -0.00119932 0.0454673 0.0469962 0.0216629 0.0444417 0.00577505 0.0613329 0.0468138 0.0521472 0.00465881 0.00665881 0.0497038 0.0257038 0.0266132 -0.00272015 0.0138079 -0.0343284 -0.0583284 -0.119139 -0.125806 -0.134306 -0.148973 -0.157346 -0.184748 -0.179414 -0.0887536 -0.092087 -0.0894845 -0.0621512 -0.0651228 -0.0237895 -0.129053 -0.168537 -0.12387 -0.122622 -0.119956 -0.0360768 -0.0487435 0.0184178 -0.00358217 0.0062142 -0.00305089 0.0402824 0.0375236 0.0201903 0.00998182 -0.0193515 0.0215595 -0.010716 0.0206173 0.0394673 0.048134 0.0523296 0.0503296 0.0171084 0.0264417 0.0346667 0.0126987 0.014032 0.0608902 0.0408902 0.0352012 0.0272012 0.0278621 0.0605288 -0.019245 -0.040798 -0.0501313 -0.11918 -0.0858465 -0.150008 -0.148675 -0.167236 -0.190702 -0.190702 -0.168821 -0.164821 -0.163232 -0.115232 -0.155509 -0.189509 -0.225746 -0.151925 -0.167925 -0.0334644 -0.0287978 0.0558119 0.0418119 0.0638076 0.0278076 0.0824009 0.0359897 0.0706564 0.0295836 0.034917 0.054678 0.0640113 -0.019608 0.0283252 0.0349919 0.0106797 0.0400131 0.0327331 0.0653998 0.0292553 0.0105886 0.0633333 0.0466987 0.014032 0.0455569 0.0248902 0.0385346 0.0612012 0.0345288 0.0211955 -0.0285783 -0.080798 -0.022798 -0.111846 -0.0945131 -0.182675 -0.196008 -0.210569 -0.208702 -0.249368 -0.175488 -0.151488 -0.156565 -0.133232 -0.185509 -0.188176 -0.257079 -0.185258 -0.163925 -0.0227978 -0.0414644 0.0231452 -0.00285478 0.0411409 0.0751409 0.0624009 0.0806564 0.0819897 -0.00108302 0.0342503 0.0233446 0.052678 0.0257253 0.0263252 0.0209919 -0.00532027 -0.00998693 0.0267331 0.0127331 0.025922 0.0132553 0.0606115 0.0260438 0.00671047 0.0296976 0.0150309 0.0603176 0.0543176 0.0525211 0.0498544 -0.01112 -0.00759894 -0.0242656 -0.0698312 -0.0311646 -0.121836 -0.145169 -0.208716 -0.154124 -0.188124 -0.163705 -0.148371 -0.149901 -0.137901 -0.222973 -0.216973 -0.192572 -0.0566324 -0.0679657 0.0414016 0.014735 0.0646404 0.0413071 0.0570541 0.0837208 0.0300576 0.0427962 0.0561296 0.025339 0.0180056 0.0329324 0.0415991 -0.00118527 0.0377753 0.014442 0.0463725 0.0243725 0.0602139 0.0522139 0.0131153 -0.00155139 0.00461147 0.0300438 0.0660438 0.0270309 0.0556976 0.0183176 0.0336509 0.0691878 0.0518544 -0.01512 0.00840106 0.0130677 -0.0584979 -0.0624979 -0.133169 -0.144503 -0.163383 -0.146124 -0.191457 -0.166371 -0.141038 -0.127901 -0.179901 -0.206307 -0.210973 -0.201905 -0.0839657 -0.0672991 0.0594016 0.054735 0.0419738 0.0746404 0.0797208 0.0590541 0.0340576 0.00946289 0.0594629 0.0260056 0.073339 0.0262658 0.0769324 0.0381481 -0.0168913 0.0117753 0.0570392 0.0443725 0.0468806 0.0222139 0.0337819 0.0197819 0.0213333 0.0432524 0.0465857 0.014446 0.062446 0.0273428 0.0520094 0.0474761 0.0228094 0.0499083 0.00277386 -0.000559475 -0.0399544 -0.0259544 -0.0568637 -0.00619705 -0.0952499 -0.0863655 -0.0690321 -0.078637 -0.078637 -0.0828141 -0.0628141 -0.105551 -0.114218 -0.101335 -0.024731 0.0219357 0.0451415 0.0078082 0.040963 0.00762963 0.00783745 0.0205041 -0.0228681 0.0435736 0.000240313 0.0570261 0.0596927 0.031989 0.015989 -0.00110756 -0.00517493 -0.0205083 -0.0078447 0.0161553 0.0483169 0.0129836 0.0205213 0.0351879 0.0333333 0.0102424 0.0135757 0.000213646 0.0548803 0.0731229 0.0671229 0.053438 0.071438 0.0515032 0.0262952 0.0422952 0.0205208 -0.000812565 0.018129 0.0174623 -0.0216952 0.000993903 0.0029939 -0.014081 -0.024081 0.0533517 0.0326851 0.0163141 0.0156474 0.0190844 0.0360326 0.0680326 0.0194568 0.0234568 -0.0183006 -0.0176339 -0.0244898 -0.00182312 0.0449387 0.0538521 0.0565188 0.0144527 0.0331194 0.0365272 -0.0114728 0.00833664 0.00945021 0.0367835 -0.00114797 0.0195187 -0.00313691 0.0328631 0.0506701 0.0173368 0.00866667 0.064909 0.038909 0.0202136 0.037547 0.0744563 0.0504563 0.0567714 0.0401047 0.0188365 0.00296188 0.0136285 -0.0168126 -0.0281459 0.0294623 -0.00853766 0.0169715 -0.0410061 -0.0290061 -0.022081 0.00325232 0.0200184 0.00601839 0.0136474 -0.0430193 -0.0329156 0.0160326 0.0406992 0.0381234 0.0341234 0.00836608 -0.0249673 0.0255102 0.0108435 -0.0143946 0.0531854 0.0405188 0.00111935 0.00311935 0.0285272 -0.00147278 0.00633664 0.0181169 -0.0205498 0.048852 0.046852 0.0308631 0.0548631 0.0633368 0.0346701 0.0573333 0.0335198 0.0241865 0.0361855 0.0695188 0.0553633 0.0420299 0.0602159 0.0528826 0.060082 -0.0193199 -0.0113199 -0.0315908 -0.0362575 0.000176088 -0.00915725 -0.00329295 0.0187463 0.0140796 0.0314814 0.0261481 0.0117508 0.0484175 0.0289528 0.00161944 0.0315203 0.0200615 0.0340615 0.020406 -0.0249273 0.00580835 0.00714168 0.0186172 0.0239506 0.0449443 0.0168322 0.0348322 0.0416991 0.0596991 0.0332144 0.0438811 -0.0103717 0.0196635 0.0163302 0.00705302 0.0277197 0.0172875 0.0492875 0.024667 0.036667 0.0606667 0.0421865 0.0428531 0.0641855 0.0615188 0.0240299 0.0260299 0.0822159 0.0922159 0.084082 0.0273467 -0.00398661 -0.0135908 -0.0235908 -0.0131572 -0.0258239 0.00137371 0.011413 0.0240796 0.0208147 0.00348139 0.0144175 0.0737508 -0.00238056 0.0536194 0.0275203 0.0100615 0.0273948 -0.0429273 -0.013594 -0.039525 -0.00885832 0.0212839 -0.0140494 0.0442777 0.0468322 0.0608322 0.0463658 0.0270325 0.0432144 -0.0127856 -0.011705 0.0156635 0.0529969 0.0343864 0.0597197 0.0086208 0.0279541 0.00333363 0.0280003 0.0453333 0.0193507 0.0340174 0.0284055 0.0297389 0.0764296 0.067763 0.0490061 0.0890061 0.0403181 0.0377727 0.0304394 -0.073609 -0.029609 -0.0280029 -0.0940029 -0.0173201 -0.0235611 0.0191055 0.0386726 -0.00666075 0.0111829 0.0165163 0.0573847 0.064718 0.0972641 0.0312519 0.0519186 0.0383966 0.0397299 0.0143795 0.0497129 8.54338e-05 -0.00591457 0.078588 0.00777383 0.0084405 0.0400561 0.00872281 0.00185931 0.0151926 0.0385232 0.0252884 0.027955 0.0153604 0.0573604 0.0540038 0.0380038 0.0560005 0.0513339 0.032 0.0393507 0.00468408 0.0337389 0.0677389 0.027763 0.0664296 0.0436727 0.0456727 0.0669848 0.0171061 0.0311061 -0.0382756 -0.025609 -0.0746696 -0.0480029 -0.0119868 -0.00689445 -0.0315611 0.0213393 0.0540059 -0.00415039 -0.00815039 0.0520513 0.0173847 0.0559307 0.0319186 0.0279186 0.0550633 0.0503966 0.0477129 0.0503795 0.0167521 0.0334188 0.054588 0.0457738 0.0297738 -0.00727719 0.0113895 0.0311926 -0.00680736 0.0251898 0.0366217 0.0446217 0.0553604 0.0393604 0.0606704 0.0346704 0.0473339 0.0613339 0.0206667 0.062 0.0553333 0.0476252 0.0362919 0.00739402 0.0647274 0.0231591 0.0538258 0.0537532 0.0219355 0.0486022 0.0104918 0.00182512 -0.00160104 -0.013601 0.025754 0.0327029 0.0280362 0.0412326 0.0365659 0.0299265 0.0432599 0.0105222 0.0538555 0.034264 0.0905257 0.0398591 0.0632446 0.0539113 0.0658137 0.0538137 0.0398381 -0.00416195 -0.00534084 -0.0155547 -0.0102214 -0.0304921 0.00750785 -0.00908135 0.00358532 0.0231037 0.00809161 0.0554249 0.00798768 0.0546544 0.0419997 0.0466663 0.048 0.036 0.0586667 0.0306667 0.042 0.0350978 0.0517644 0.0603936 0.0310603 0.0419726 0.0526393 0.0226733 0.0133532 0.0413532 0.0223969 0.0470636 0.0162894 0.0282894 0.0113666 0.0108176 0.0341509 0.0324631 0.0437965 0.0167591 0.0347591 0.0729116 0.058245 0.0376626 0.0169357 0.052269 -0.0104741 0.0315259 0.0128265 -0.0345068 -0.00572011 -0.0403868 -0.0318162 -0.0174127 -0.0120793 0.0325394 -0.00146065 0.0126545 0.0619879 0.0147929 0.0326126 0.0106126 0.039552 0.0188854 0.0566734 0.0260067 0.0366667 0.0506667 0.0486667 0.02 0.00266667 0.00176443 0.0530978 0.053727 0.0423936 0.0153059 0.0159726 0.0673399 0.0566866 0.0460199 0.0570636 0.0290636 -0.0123773 0.0436227 0.0320332 0.0274842 0.0294842 0.0677965 0.0444631 0.0300924 0.0594258 0.0789116 0.064245 0.0736626 0.012269 0.0329357 0.000859251 0.0361926 -0.0131735 -0.0211735 -0.00305344 -0.0283868 -0.0391496 -0.0400793 -0.0174127 -0.0161273 0.00187269 0.00598788 0.0126545 0.0374595 0.0332792 0.0619459 0.059552 0.00155204 0.0120067 0.0426734 0.0246667 0.038 0.0613333 0.0266667 0.01 0.00136713 0.0380338 0.00562937 0.0256294 0.0587676 0.000767621 0.00649092 0.0473174 -0.000682553 -0.00427364 -0.00894031 0.0222799 -0.0330534 -0.00658725 -0.0503157 -0.0409824 -0.0453039 -0.00597058 -0.00196774 -0.000634402 0.000673221 -0.0139934 -0.0368673 -0.0172526 -0.0305859 -0.0471812 0.0108188 0.00191736 -0.00741597 0.00796834 -0.0426983 0.0274373 0.00779289 -0.00354045 0.00179032 0.00245698 0.024717 0.038717 0.00226632 0.0447914 0.0447914 0.0533382 0.0580049 0.0286748 0.0240081 0.0346667 0.0426667 0.014 0.03 0.064 0.0340338 0.0160338 0.0029627 0.0609627 0.0287676 0.0627676 0.0438243 0.0253174 0.0226508 -0.00227364 -0.0102736 0.0229466 -0.0123868 0.0160794 -0.0443157 -0.0229824 -0.0326372 -0.0326372 -0.00930107 -0.0046344 -0.0419934 -0.0506601 -0.00286732 0.00874743 -0.0319192 -0.0511812 0.00815216 -0.029416 -0.0380826 -0.0420317 0.00463501 0.00210399 0.00979289 -0.0102071 0.0237903 0.0197903 0.0200503 0.030717 0.028933 0.0321247 0.00812469 0.0273382 0.0246715 0.0133414 0.0493414 0.00133333 0.0573333 0.026 0.026 0.0133333 0.028 0.0546667 0.00466102 0.0513277 0.0249814 0.00498136 0.00595508 0.0153509 0.0020176 0.0485342 0.00520084 0.002579 0.0159123 0.00033462 0.0302276 -0.0157724 -0.0411913 -0.00385795 -0.00512027 0.00287973 -0.0015141 -0.0521808 -0.0193813 0.0140834 0.00741675 0.0110921 0.0110921 -0.00649577 0.0181709 0.0268743 0.0368743 0.0185904 0.0460896 0.0260896 0.059648 0.0543146 0.0128451 0.0455118 0.053097 0.0119865 0.0193198 0.0393269 0.0319935 0.012 0.0626667 0.0306667 0.0506667 0.0353333 0.0513333 0.0426667 0.00333333 0.0206667 0.048661 0.034661 0.017648 0.00831469 0.0599551 0.00135094 0.000684271 0.0478675 0.0172008 0.014579 -0.003421 -0.0316654 0.0202276 0.00089429 -0.00185795 -0.0338579 0.0102131 -0.0317869 -0.0328474 -0.0361808 -0.0213813 -0.0385833 0.0214167 0.0130921 -0.0255745 0.0301709 -0.00649577 -0.0217923 0.0368743 -0.00540961 0.0520896 0.0327563 0.031648 0.049648 0.0628451 0.0455118 0.0564303 0.0633198 0.0466531 0.0286602 0.0573269 0.0293333 0.0213333 0.066 0.052 0.0553333 0.0206667 0.000666667 0.058 0.046 0.0533333 0.0633333 0.0339926 0.0379926 0.0219307 0.0609577 0.0309577 0.0406079 0.0612746 0.0128132 0.0161465 0.00509807 0.0576295 -0.00437049 0.0287104 0.0347104 0.021356 0.0360226 0.0495789 0.0382456 0.0315912 0.0235578 0.0528911 0.0359838 0.0439838 0.0169732 0.0229732 0.0158297 0.0124964 0.00639057 0.00837046 0.0403705 0.0354288 0.0440955 0.00686543 0.0588654 0.0115317 0.03 0.00533333 0.0453333 0.018 0.0333333 0.0633333 0.03 0.0233333 0.0386667 0.0266667 0.0153333 0.0566667 0.048 0.0613333 0.032 0.015326 0.057326 0.0599307 0.0489577 0.0289577 0.0146079 0.0506079 0.0188132 0.0434798 0.0430981 0.0122962 0.00829618 0.0027104 0.0420437 0.0380226 -0.000644044 -0.00442108 -0.00108775 0.0295912 0.0508911 0.0535578 0.0353171 0.0279838 0.0369732 0.0403065 0.0538297 0.0164964 -0.00227609 0.0317038 0.0210371 0.0500955 0.0574288 0.00886543 0.0535321 0.0388651 0.016 0.0313333 0.058 0.0313333 0.0106667 0.012 0.0273333 0.058 0.0106667 0.04 0.0233333 0.024 0.026 0.0233333 0.064 0.0606667 0.0606667 0.0466667 0.0506667 0.0646667 0.0586667 0.0626667 0.058 0.0286667 0.0533333 0.00466667 0.058 0.03 0.0586667 0.0327033 0.0380367 0.0247456 0.062079 0.0626653 0.00666661 0.0373333 0.0393333 0.054 0.004 0.0406667 0.0306667 0.048 0.0493333 0.0513333 0.0413333 0.036 0.00733333 0.0273333 0.048 0.0266667 0.00933333 0.004 0.022 0.0486667 0.0193333 0.004 0.0553333 0.0313333 0.0246667 0.00466667 0.052 0.0166667 0.012 0.0193333 0.0246667 0.0519995 0.0506661 0.0526651 0.0222081 0.0228747 0.045976 0.0533094 0.0387491 0.00541579 0.00958484 0.0336384 0.0576384 0.0434494 0.0454494 0.0344015 0.0597348 0.0108152 0.0614819 0.0354283 0.0650067 0.0410067 0.0271681 0.0065014 0.0500968 0.0414301 0.0404434 0.00911009 0.034516 0.0542404 0.0389071 0.03663 0.01263 0.0219641 0.0466308 0.0599995 0.0466667 0.0326667 0.0486667 0.0353333 0.0453333 0.0213333 0.00533333 0.0593333 0.0286667 0.0206667 0.0446667 0.0533333 0.026 0.0333333 0.0153333 0.0559995 0.00399945 0.00799839 0.0602081 0.0155414 0.0433094 0.0193094 0.0100825 0.0474158 0.0662515 0.0496384 0.0309718 0.0367828 0.00544942 0.0524015 0.0477348 0.00281525 0.0374819 0.058095 0.0123401 0.0330067 0.0265014 0.0185014 0.00409677 0.0400968 0.0384434 0.0104434 0.016516 0.0562404 0.0435737 0.0112967 0.03863 0.0519641 0.0492975 0.0446661 0.0246667 0.00666667 0.0193333 0.0633333 0.0293333 0.026 0.0493333 0.0213333 0.00333333 0.038 0.056 0.0439989 0.0413322 0.0446643 0.0446643 0.00868277 0.0353494 0.037316 0.00279216 0.0567922 0.0209002 0.0462335 0.0687547 0.0214214 0.0208511 0.0248637 0.0135304 0.0477238 0.0557238 0.02051 0.0571767 0.032182 0.064182 0.0559416 0.00200118 0.00666785 0.00103185 0.0176985 0.0380144 0.00268107 0.0478656 0.00119889 0.0283905 0.0105893 -0.00141069 0.0200243 0.0240243 0.00761294 0.000946269 0.00604525 0.0246577 0.0486577 0.0173237 0.034657 0.00866667 0.0426667 0.058 0.0266667 0.0466667 0.056 0.038 0.0413322 0.0239989 0.057331 0.033331 0.0440161 0.0266828 0.0459827 0.0181255 0.0201255 0.0249002 0.00490016 0.0274214 0.0254214 0.00751779 0.0555304 0.0681971 0.0443904 0.0257238 0.0291767 0.01651 0.0548487 0.0415154 0.0286082 -0.00466548 0.0260012 0.00769852 0.0303652 0.0280144 0.0406811 0.000532219 0.00919889 0.0170572 0.049256 0.0159226 0.00602434 0.0220243 0.0369463 0.0549463 0.00204525 0.029991 0.0486577 0.0533237 0.00665703 0.02 0.0433333 0.0246667 0.048 0.018 0.00266667 0.0386667 0.0559919 0.0066586 0.0553722 0.0240389 0.0292793 0.0472793 0.0425018 0.0117616 0.0597616 0.0429441 0.0142774 0.0542751 0.0509418 0.0631246 0.0367735 0.0394401 0.0528785 0.0228785 0.0572198 0.0625531 0.0752345 0.0772345 0.00441703 0.0288771 0.00487712 0.0203123 0.0183123 0.0719636 0.0659636 0.0662412 0.0429078 0.00896501 0.0215966 -0.00373672 0.0359912 0.0193246 0.0277471 0.00108048 0.0153713 0.0462777 0.013611 0.0498992 0.00123254 0.0266977 0.0566977 0.0333333 0.0106667 0.0573333 0.042 0.0206667 0.0319919 0.0599919 0.0153722 0.0360389 0.0092793 0.0052793 0.0178351 0.0597616 0.0244283 0.0182774 0.00561077 0.0509418 0.0189418 0.030458 0.0061068 0.0594401 0.00954518 0.00821185 0.0372198 0.0152198 0.0245679 0.0392345 0.0550837 0.0282105 0.0415438 0.0223123 0.0109789 0.0352969 0.0666302 0.0535745 0.0155745 0.0256317 -0.0137367 -0.0104034 0.0106579 0.0086579 0.0470805 0.0504138 0.0427047 0.00427767 0.011611 0.0332325 0.0598992 0.00203099 0.00136433 0.0246667 0.02 0.0586667 0.0346672 0.0300006 0.0259833 0.00598329 0.00545182 0.0614518 0.0550354 0.0543688 0.0341384 0.018808 0.042808 0.00766369 -0.0136696 0.00733842 -0.00399491 0.0437155 0.0170425 -0.00629087 -0.00918674 0.0148133 0.0110364 0.019703 -0.00870585 -0.0320392 0.0125842 0.0470623 0.0590623 0.038657 0.018657 0.00257905 0.0279124 0.0460887 0.0100887 -0.0235821 0.0156968 -0.00363657 -0.022026 -0.0106926 -0.00729309 -0.0206264 0.0400184 0.0567119 0.0333786 0.0198106 0.0624773 0.00597556 0.0466422 3.66973e-05 0.00737003 0.0593333 0.00933389 0.00400056 0.01865 0.04065 0.0654518 0.0654518 0.0623688 0.0377021 0.030805 0.0481413 0.0481413 0.0476637 0.012997 -0.00266158 0.0313384 -0.0142845 0.0270425 0.00504246 0.0128133 -0.0118534 -0.032297 -0.0349636 0.0132941 0.0146275 -0.000749143 0.051729 0.00972896 0.0359904 -0.00134296 -0.00208762 0.0299124 0.0360887 0.0414221 -0.00424881 0.0283634 -0.0183032 0.0233074 -0.0233593 0.00670691 -0.00995975 0.0266851 0.0420453 0.0167119 0.0491439 0.0364773 0.0479756 0.0193089 0.0587034 0.06137 0.0193333 0.056 0.0473333 0.0653165 0.0493165 0.0245368 0.0158701 0.0289553 0.00895529 0.0422816 -0.00166263 -0.0223293 0.0159539 -0.0280461 -0.044846 -0.044846 -0.0448451 -0.0472944 -0.0472944 -0.021485 -0.025485 -0.0438823 -0.0278823 0.000827778 -0.0425056 -0.0244052 0.00175972 -0.00757362 -0.0135198 -0.00685318 0.0128445 -0.00648882 -0.0612413 -0.0472413 -0.0491559 0.00873563 0.0094023 -0.0237533 -0.0184199 -0.0634569 -0.0501236 0.00500628 0.0229664 -0.0117002 0.0179342 0.0519342 0.0454292 0.0167625 0.0506945 0.0466945 0.0353333 0.0393346 0.0113346 0.0314816 0.0228149 0.0517452 0.0490786 0.0140277 0.0566944 0.0421196 -0.0252354 -0.00390204 0.00372963 -0.00693704 -0.0734088 -0.0580754 -0.0726539 -0.0611022 -0.0757688 -0.0524357 -0.0264357 0.0237939 0.00312723 0.0286907 0.0313574 0.0247802 0.0318003 0.0231336 0.0258658 0.0478658 0.0178009 0.0184675 0.00281258 -0.0138541 -0.0460948 -0.0132601 -0.0579267 -0.100018 -0.0646848 -0.0327586 -0.0580919 0.00118388 0.0182623 -0.0217377 0.0210066 0.0516733 0.0454797 0.0634797 0.030446 0.0597793 0.0393333 0.0226679 0.0266679 0.0208149 0.0421483 0.0657452 0.00174523 0.0306944 0.0120277 0.0227863 -0.0265687 -0.011902 -0.0502704 -0.0176037 -0.0360754 -0.0414088 -0.0773206 -0.0537688 -0.0424355 -0.033769 -0.057769 0.0131272 -0.0355394 0.0400241 0.0126907 0.0327802 0.0564669 0.0391336 -0.00880085 0.0211992 0.00646753 0.0431342 -0.0165208 -0.0231874 -0.0594281 -0.0219267 -0.0145934 -0.0380181 -0.0586848 -0.0267586 -0.0254253 -0.0268161 -0.000404328 -0.0104043 0.00300659 0.0556733 0.0101463 0.0634797 0.044446 0.0397793 0.0506781 0.0368118 0.0188118 0.00150398 0.0141706 0.0390805 0.0464138 0.0420957 0.0440957 0.0466579 -0.0068264 0.0051736 0.00566063 -0.00300603 -0.046243 -0.042243 0.0059043 0.00438821 0.0230549 0.079486 0.0648193 0.0510045 0.0496712 0.0961594 0.100159 0.181698 0.157571 0.140905 0.104533 0.115866 0.0432161 0.0138828 -0.0111359 0.0141974 -0.0141078 -0.0361973 -0.0315307 -0.0497579 -0.0730912 -0.0483225 -0.0556559 0.00682489 -0.00195288 -0.00595288 0.0325282 -0.00347177 0.0620105 0.0120105 0.0230004 0.0630004 0.0600115 0.0174785 0.0628118 0.0521706 0.0348373 0.00708046 0.0637471 0.0434291 -0.0112376 0.0353245 0.0165069 -0.00815974 -0.0503394 -0.027006 -0.066243 -0.0669097 -0.0487624 0.0357215 0.0270549 0.047486 0.0321527 0.0370045 0.0716712 0.0994928 0.120826 0.139031 0.139571 0.142905 0.0838659 0.0991992 0.0532161 0.0532161 0.0255307 -0.0158026 -0.0167745 -0.0201973 -0.070864 -0.0317579 -0.0317579 -0.0283225 -0.0543225 -0.0165084 0.00604712 -0.00661954 0.00186156 0.00519489 0.0213439 0.0520105 0.0203337 0.00100038 0.0514355 0.052628 0.0212946 0.0661382 0.0181382 0.0521859 0.0181859 -0.00400208 -2.0843e-06 0.021452 0.049117 0.0344503 -0.00606524 -0.0207319 0.0270679 -0.0129321 0.0629871 0.0317659 0.0777659 0.0384192 0.0704192 0.13256 0.129893 0.166856 0.181523 0.214258 0.193963 0.18063 0.160085 0.140085 0.0290213 0.0530213 -0.00865087 0.0240158 -0.0340184 -0.048915 -0.024915 -0.00688256 -0.0222159 -0.035874 -0.011874 0.0184897 0.00277072 0.00543739 0.0233422 0.0426755 0.026612 0.0172786 0.0286585 0.00799181 0.0581021 0.0312946 0.0392946 0.000804891 0.0508049 0.0441859 0.0141859 0.0586646 0.0313312 -0.0118813 0.011117 0.0537836 -0.0273986 -0.0147319 -0.0269321 0.00106785 0.0143205 0.0290992 0.0670992 0.0524192 0.0510858 0.139893 0.125893 0.143523 0.182856 0.211591 0.139297 0.18863 0.144751 0.142085 0.053688 0.00502134 0.0106825 -0.00665087 0.0279816 -0.0502484 -0.0102484 -0.0455492 -0.0242159 -0.0365406 -0.0185406 0.0211563 0.0541041 0.00677072 0.0653422 0.0266755 0.0279453 0.058612 0.0379918 0.0566585 0.0233537 0.0114087 0.00807536 0.058695 0.0340284 0.0583402 0.0616735 0.0491024 0.0151024 0.0287724 0.0214136 0.0574136 0.00487041 0.0448704 0.00514071 0.0611407 0.076807 0.0753101 0.0593101 0.0512228 0.0998894 0.112533 0.0985335 0.122112 0.124779 0.180974 0.129122 0.167122 0.0700631 0.0907298 0.0279032 0.00856982 0.0160767 0.0280767 0.012085 0.0184423 -0.0268911 -0.0340051 0.00399493 0.0356983 0.0543649 0.0242481 0.0742745 0.0409412 0.0331694 0.0265027 0.048078 0.0387447 0.0650473 0.0330473 0.0300235 0.01407 0.00406998 0.0446104 0.0446104 0.0253383 0.018005 0.062932 0.0215986 0.0593576 0.0212064 0.00120639 0.0402717 0.0622717 0.00994854 0.0192819 0.0543367 0.0199406 0.031274 0.0431266 0.03446 0.0315753 0.0515753 0.0889249 0.0802582 0.0879297 0.0416447 0.0483114 0.026306 0.0136393 -0.0435981 -0.0655981 -0.0181852 -0.0315185 0.0744481 0.0414408 0.0681075 0.0180794 7.94138e-05 0.0503326 0.0176659 0.0911188 0.04527 0.0519367 0.0339148 0.0412481 0.0337394 0.0497394 0.0349234 0.0449234 0.00602355 0.05007 0.01407 0.0359437 0.023277 0.048005 0.0486717 0.054932 0.054932 0.0633576 0.0478731 0.0278731 -0.00306163 0.0369384 -0.0013848 0.0572819 0.0410034 0.00860729 0.00527396 0.00845996 0.0111266 0.026242 0.0135753 0.0635915 0.0495915 0.13193 0.0503114 0.0829781 0.0529727 0.0549727 -0.0369314 -0.0335981 0.0171481 0.0104815 0.0377814 0.0294408 0.0254408 0.0274127 -0.0145873 0.0449992 0.0189992 0.0864521 0.05127 0.0506033 0.0119148 0.0612481 0.00573944 0.0410728 0.0282567 0.0449234 0.0560178 0.0280356 0.0413689 0.0348807 0.0335473 0.049203 0.023203 0.0519686 0.0386353 0.0377533 -0.0195914 0.0337419 -0.00865137 -0.0199847 0.00777399 -0.00622601 -0.0181364 -0.0547208 -0.101387 -0.0763321 -0.0649987 -0.0555061 -0.0375061 0.0442875 0.0196208 0.00652508 -0.062627 -0.090627 -0.0657859 -0.0651192 -0.0704884 -0.0744884 0.0119146 -0.00941876 0.0487312 0.0200221 0.0413554 0.0300182 0.00668485 0.0862714 0.0762714 0.0690537 0.0178411 0.0338411 0.015257 0.0425904 0.0487292 0.0560625 0.0314532 0.0661198 0.00735118 0.0547023 0.0613689 0.0168807 0.0335473 0.0618697 0.0325364 0.0439686 0.047302 0.00441999 0.0370753 0.0110753 0.0333486 0.00934863 -0.024226 0.0191073 -0.0414697 -0.0980541 -0.0520541 -0.0729987 -0.108999 -0.0415061 -0.0581728 0.0109542 0.0569542 0.0138584 -0.0452937 -0.080627 -0.0831192 -0.0971192 -0.0724884 -0.120488 -0.0160854 -0.0360854 0.0227312 0.0520221 0.0126888 0.0340182 0.0133515 0.0449381 0.0296047 0.0837204 0.0705078 0.0498411 0.0119237 0.017257 0.0293959 0.0513959 0.0394532 0.0441198 0.0526793 0.0324592 0.0191259 0.013189 0.00652231 0.045592 0.0249253 0.050443 0.032443 0.00952511 0.00754769 -0.035119 -0.040322 -0.022322 -0.0936752 -0.0523419 -0.0900023 -0.0925636 -0.150564 -0.0870473 -0.121714 -0.0722341 -0.0475675 -0.0323076 -0.0449743 -0.174155 -0.168023 -0.121356 -0.137576 -0.161576 -0.174311 -0.170311 -0.0886846 -0.0786846 -0.0186762 0.0337036 0.000370237 0.0502769 0.0462769 0.0674361 0.0241028 0.0671327 0.023721 0.0543877 0.0343678 0.0437011 0.0584275 0.0164275 0.00472416 0.00872416 0.0100127 0.00579255 0.00179255 0.0518556 0.029189 0.0302586 0.0662586 -0.00089032 0.040443 -0.0304749 0.0182144 0.0122144 -0.0629886 -0.0496553 -0.0563419 -0.0490085 -0.0740023 -0.0998969 -0.120564 -0.115047 -0.107714 -0.0635675 -0.0295675 -0.0369743 -0.0443076 -0.118155 -0.170023 -0.110023 -0.122909 -0.132909 -0.152977 -0.133644 -0.0793513 -0.106685 -0.00667615 0.0090369 -0.0149631 0.0476103 0.0302769 0.0827695 0.0321028 0.0971327 0.0323877 0.0630543 0.0490344 0.000367772 0.0584275 0.0297609 0.0420575 0.0487242 0.0586583 0.0548859 0.0235525 0.0301324 0.0267991 0.00924756 0.0419142 0.0386794 0.0400128 -0.0408381 -0.0766159 -0.0952825 -0.121121 -0.0997876 -0.14026 -0.13826 -0.164465 -0.102497 -0.135831 -0.0948703 -0.14487 -0.0491859 -0.0505192 -0.157249 -0.157916 -0.200448 -0.188318 -0.204318 -0.232907 -0.197573 -0.199672 -0.192339 -0.0978906 -0.0992239 -0.0578294 -0.0378511 0.00214889 0.0150272 0.0190272 0.0113107 0.0459774 0.0887588 0.0757757 0.027109 0.0573788 0.00537885 0.0467644 0.0174311 0.0163259 0.0156592 0.059325 0.0188859 0.0255525 0.0201324 0.0561324 0.0165809 0.00258089 -0.0179872 0.0133461 -0.0475047 -0.0372825 -0.0339492 -0.0724543 -0.0824543 -0.0882598 -0.108926 -0.128465 -0.159831 -0.161831 -0.109537 -0.139537 -0.0925192 -0.0785192 -0.166583 -0.156583 -0.161114 -0.156318 -0.174985 -0.228907 -0.210907 -0.231672 -0.182339 -0.107891 -0.147224 -0.0218294 -0.0238511 0.00681556 0.0356939 0.0370272 0.0159774 0.00664406 0.0900921 0.039109 0.077109 0.00604552 0.0467122 0.00409778 0.0227644 0.0109925 0.0489925 0.0273349 0.0193842 0.0100509 0.0626492 0.0153158 0.02186 0.00786 0.0159847 -0.0440153 -0.0522683 -0.101166 -0.1305 -0.110555 -0.109889 -0.111334 -0.140001 -0.159238 -0.114322 -0.123655 -0.1172 -0.0992002 -0.110733 -0.108733 -0.20086 -0.179527 -0.213086 -0.209988 -0.234654 -0.237481 -0.266814 -0.290982 -0.240315 -0.192347 -0.163013 -0.126693 -0.0720762 -0.0420762 -0.00514963 0.0161837 -0.00102072 0.0476459 0.0752915 0.0697693 0.0177693 0.0345266 0.0591932 0.00389203 0.055892 0.0260345 0.0287011 0.00933392 0.00853771 0.0345377 0.0597822 0.0137822 0.0413798 0.0287131 -0.000153517 0.0285131 -0.0633909 -0.111133 -0.104466 -0.112253 -0.124919 -0.0641238 -0.118124 -0.0813055 -0.0578525 -0.0618525 -0.0860502 -0.0860502 -0.168585 -0.145919 -0.198871 -0.162204 -0.243052 -0.238453 -0.235787 -0.20787 -0.23387 -0.253122 -0.241789 -0.142147 -0.116147 -0.0984691 -0.0111034 -0.0377701 -0.0224255 -0.0530922 -0.0173927 0.00327399 0.0296678 0.0726018 0.0652685 0.00177905 0.013779 0.042924 0.0362573 0.00128986 0.0372899 0.0520006 0.033871 0.0565377 0.0224489 0.0217822 0.0467131 0.0293798 -0.0268202 0.0318465 -0.0120576 -0.0764662 -0.0931328 -0.136919 -0.127586 -0.0874572 -0.12479 -0.0859722 -0.0578525 -0.0805191 -0.11005 -0.0660502 -0.133252 -0.154585 -0.220871 -0.213538 -0.203718 -0.227787 -0.223787 -0.225203 -0.248536 -0.201789 -0.196455 -0.134147 -0.15148 -0.0884691 -0.0171034 -0.00310343 0.00690781 -0.00642552 0.0166073 -0.00272601 0.0470011 0.0372685 0.0486018 0.00177905 0.00644571 0.00159065 0.0222573 0.0319565 0.0166232 0.046667 0.0653141 0.0526475 0.00110996 0.04311 0.000165609 -0.00316772 -0.0096798 0.0443202 0.0170171 -0.043722 -0.0470554 -0.0767891 -0.0981225 -0.0195821 -0.0129154 -0.00792305 -0.0113076 -0.00064098 -0.100131 -0.0487976 -0.178452 -0.170452 -0.19556 -0.234227 -0.287783 -0.265691 -0.279691 -0.159245 -0.142578 -0.143727 -0.139727 -0.0675147 -0.0601814 -0.0377989 -0.0449333 -0.0176 -0.0120188 -0.0326855 -0.0071548 0.0261785 0.0511752 0.033725 0.0323917 0.0441719 0.0508385 0.0285505 0.0418838 0.0319098 0.0265765 0.034667 0.0166475 0.0279808 0.03311 0.04111 0.0308323 0.0381656 -0.00301313 0.0223202 -0.0343163 -0.085722 -0.051722 -0.108122 -0.104122 -0.0689154 -0.0535821 -0.0505897 -0.024641 -0.0113076 -0.0481309 -0.0441309 -0.153786 -0.140452 -0.182227 -0.22956 -0.299783 -0.244357 -0.280357 -0.203245 -0.149912 -0.178394 -0.13906 -0.0781814 -0.0355147 -0.0197989 -0.0229333 -0.0102666 -0.0313521 -0.0206855 0.0168452 0.00417853 0.0351752 0.033725 0.0170584 0.0408385 0.0135052 0.0338838 0.0272172 0.0225765 0.0279098 0.052 0.0386193 0.0399527 0.0594471 0.0661138 0.0235362 0.00353619 0.0374982 0.0394982 0.00123495 -0.0321647 0.018502 -0.0267056 -0.0287056 0.0058241 -0.0335092 -0.0322875 -0.0369786 -0.00964531 -0.096533 -0.088533 -0.14861 -0.141944 -0.201377 -0.170711 -0.290317 -0.223041 -0.170374 -0.106319 -0.146985 -0.0416707 -0.043004 0.0262445 0.0335779 0.052093 -0.00930905 0.0126909 0.0285952 0.0299285 0.0622943 0.0276277 0.0019915 0.0506647 0.0239981 0.0433534 0.0353534 0.026589 0.018589 0.019412 0.031412 0.0106667 0.065286 0.0406193 0.00211378 0.0394471 0.0315362 0.0455362 -0.00650179 0.0301649 0.0339016 -0.0288313 0.0138353 -0.0587056 -0.0487056 -0.00284256 -0.0181759 -0.0402875 -0.0329786 -0.0429786 -0.0571997 -0.0991997 -0.137277 -0.10461 -0.190711 -0.182044 -0.287651 -0.209707 -0.225041 -0.148985 -0.0883187 -0.0496707 -0.0523373 -0.00242214 -0.0190888 0.038093 -0.0313091 -0.0239757 -0.000738175 0.0185952 0.0502943 0.00962766 0.0379915 0.0526647 0.0126647 0.0586868 0.0480201 0.0412557 0.0492557 0.0520787 0.00607867 0.0420131 0.00329953 0.0292995 0.0010772 0.0597439 0.045619 0.0282857 0.0302198 0.0355531 0.00082187 0.0172821 0.0239488 0.029273 0.0346064 0.0501823 0.014849 0.0100305 0.0472474 0.0125807 -0.0378652 0.0114681 -0.0569062 -0.0549062 -0.132429 -0.087762 -0.166758 -0.111139 -0.109806 -0.054731 -0.0380643 0.0342501 -0.00308322 -0.00464939 0.0380173 0.0456241 0.0150067 0.0110067 0.000481155 0.0238145 0.0308146 0.0394813 0.0235486 0.0401484 0.064815 0.0174763 0.00547631 0.0540206 0.0533539 0.065127 0.037127 0.0106797 0.00529953 0.0159662 0.0210772 0.0590772 0.019619 0.0169524 0.0042198 0.00888646 0.0421552 0.0339488 0.0286154 0.0599397 0.067273 0.052849 0.0101823 0.0113638 0.0245807 0.0425807 0.0121348 0.0221348 -0.0895728 -0.0589062 -0.141762 -0.125095 -0.132758 -0.0858061 -0.0984728 -0.0360643 -0.012731 -0.0190832 -0.00774989 0.0300173 0.0266839 0.0656241 0.0290067 0.0516734 -0.00151885 0.0451478 0.0168146 0.0368146 0.00688189 0.0334817 0.054815 -0.00385702 0.046143 0.00735392 0.0586872 0.037127 0.0484603 0.0186667 0.0489171 0.0442505 0.0318033 -0.000863411 -0.00558664 0.03708 0.0116991 0.0570324 0.00493231 0.0671371 0.0424704 0.0923766 0.10371 0.0932827 0.0859494 0.10199 0.157867 0.148534 0.0874281 0.0820948 0.0700393 0.0113726 -0.046233 -0.0508996 -0.0833595 -0.00254115 0.00479218 0.00354787 0.0168812 -0.0083648 0.0209685 0.0205055 0.00583887 0.0311582 -0.00143875 0.0192279 0.0232428 0.0212428 -0.0155811 0.0270856 -0.0241137 0.0507531 0.0254198 0.0364055 0.0384055 0.0145499 0.0145499 0.00393897 -6.10299e-05 0.0113333 0.00603132 0.0213647 0.0360416 0.00137493 0.0392086 0.0525419 0.0471768 0.0418435 0.0556622 0.0911614 0.0438281 0.0932862 0.0512862 0.106538 0.109871 0.102499 0.155806 0.13314 0.0700852 0.113419 0.0580996 0.0580996 0.0191313 0.0491313 0.00945504 0.0253536 0.0220203 0.000442331 -0.00622434 -0.0476539 -0.0356539 -0.0708875 -0.0215541 -0.0408099 -0.0136812 0.0236521 0.0130937 -0.0229063 0.0153271 -0.00800626 0.0184875 0.0433219 0.0273219 0.0134071 0.0294071 0.0489086 0.0342419 0.0560053 0.0493386 0.0273333 0.0353647 0.010698 0.0327083 0.00937493 0.0352086 -0.00212474 -0.0028232 -0.00148987 0.0429956 0.0384947 0.0318281 0.0939529 0.0592862 0.119205 0.100538 0.0991657 0.170473 0.15314 0.100085 0.0934186 0.0220996 0.0387663 0.0424646 0.0311313 0.0261217 -0.00397971 -0.0199797 -0.0202243 0.0177757 -0.00898727 0.00101273 -0.0328875 -0.0608875 0.00919006 0.0276521 0.0243188 0.00176039 0.0157604 0.0213271 0.00532707 0.00182083 -0.00601143 0.00198857 0.0327404 0.0274071 0.0109086 0.0195752 0.0200053 0.0413386 0.0173333 0.0606801 0.00334681 0.0427851 0.0634518 -0.00179896 -0.00579896 0.020965 0.000965012 0.0495302 0.0498666 0.0538666 0.0628649 0.0341982 0.0759503 0.0619503 0.0868515 0.0627377 0.0960711 0.0245094 0.0358427 0.0303487 0.0463487 0.0510816 0.0157483 0.0073953 -0.0265797 -0.00391298 0.00769511 -0.0389716 -0.0338558 -0.0471891 -0.0323526 -0.0723526 -0.0423287 -0.00989295 0.030107 -0.0193577 0.0159757 -0.000948337 0.0237183 0.013569 0.0196181 0.0542847 0.0578875 0.0672208 0.0444931 0.0458265 0.0460005 0.0480005 0.0546667 0.0460135 0.0346801 0.00945181 0.0381185 0.048201 0.038201 0.0222983 0.00563168 0.0468636 0.0552 0.0472 0.0181982 0.0588649 0.0532837 0.044617 0.0681848 0.101404 0.0667377 0.0798427 0.0725094 0.0723487 0.0443487 0.028415 0.072415 0.050062 -0.0292463 -0.013913 -0.00430489 0.0103618 -0.0391891 -0.0338558 -0.0123526 -0.0310193 -0.00499533 -0.013893 -0.019893 -0.018691 -0.020691 0.00305166 -0.00294834 0.037569 0.0236181 0.0182847 0.0378875 0.0565541 0.0198265 0.0258265 0.0253339 0.0506672 0.016 0.063335 0.0300017 0.0557674 0.00910074 0.0498647 0.0398647 -0.00802548 -0.0133588 0.0398355 0.00417653 0.0308432 0.00850553 0.0138389 0.00920417 0.0358708 0.0194391 0.0334571 0.0154571 0.014744 0.00741062 0.0365644 0.029231 0.0137948 0.0344615 0.0359612 -0.00872028 -0.0113869 -0.076685 -0.090685 -0.0601195 -0.0134528 -0.0141715 -0.0321715 -0.0424004 0.0110759 -0.0129241 -0.0233382 0.00866182 0.051213 0.0218797 0.050191 0.0255708 0.0649042 0.0289868 0.0343202 0.057292 0.0339587 0.0626677 0.0546677 0.022 0.0100017 0.0220017 0.0531007 0.00110074 0.0145313 0.0225313 0.00597452 0.000641186 0.0105022 0.0028432 0.0521765 -0.0101611 0.00583887 0.0372042 0.0118708 0.0261058 0.0681237 0.0667904 0.026744 0.00807729 0.0245644 -0.0121023 0.00712818 0.0637948 0.000627848 -0.0380536 -0.0213869 -0.0340184 -0.0420184 -0.0207862 -0.0521195 -0.0448382 -0.0208382 -0.0124004 -0.00559077 -0.00225744 0.0173285 0.0193285 0.0465464 0.055213 0.00285765 0.0629042 0.0229042 0.0463202 0.0196535 0.0526254 0.0259587 0.0213343 1.00806e-06 0.036 0.018 0.0373333 0.0121679 0.0348345 0.00396128 0.0572946 -0.00421089 0.0391224 0.0148586 -0.00456415 -0.0125641 0.0324863 -0.00351374 0.0034018 0.0107351 0.0147985 0.00438003 0.00438003 -0.00491975 -0.0115864 -0.00282113 0.0265122 0.0656249 0.0436249 0.0184821 -0.0673579 -0.0373579 -0.0382956 -0.0462956 -0.0311496 -0.0591496 -0.0400788 -0.00941212 -0.0400794 -0.00362633 0.00570701 0.00421513 0.0275485 0.0457716 0.0431049 0.000553495 0.0430614 0.00972808 0.04149 0.0348234 0.0565917 0.0145917 0.00466667 0.016 0.0346667 0.0406667 0.064 0.0426214 0.0239548 0.0293284 0.0113284 0.0540393 0.0320393 0.0394157 0.0264889 0.0538222 0.0494084 0.0167417 -0.00494944 0.0377172 0.0419105 -0.00131154 0.0406885 -0.0199901 0.0266765 0.058855 0.0475217 0.0290115 -0.00165516 -0.013849 -0.00905999 0.00360668 0.0095358 0.0148691 0.0250544 0.00705444 0.00381197 -0.0115214 0.00651788 0.046488 0.00648802 0.0390153 0.00634863 0.0531493 0.0331493 0.0416741 0.047538 0.037538 0.0534978 0.0268311 0.0633734 0.04204 0.008 0.03 0.02 0.0433333 0.0133333 0.0206214 0.0072881 0.0419951 0.0253284 0.0613726 0.0313726 0.0454157 0.00982221 0.0504889 0.0327417 0.0274084 0.0270506 -0.000949442 0.0665772 0.0586885 0.0433551 -0.0133235 -0.0326568 0.058855 0.00685503 0.0590115 0.00834484 -0.013849 0.000940009 0.00627334 -0.0064642 0.00220246 0.0337211 0.0390544 0.037812 -0.020188 -0.0161488 0.0278214 0.00648802 0.063682 0.061682 0.00514926 0.0491493 0.0636741 0.0542047 0.0322047 0.0381645 0.0528311 0.03204 0.0593734 0.0413333 0.0266667 0.004 0.054 0 0.0479957 0.0606624 0.06009 0.0334233 0.00175655 0.0177565 0.0283679 0.00445346 0.0344535 0.0153345 0.0446678 0.0193785 0.0593785 0.0550088 0.0489166 0.0555832 0.0273311 0.0299978 0.0555735 0.0449069 0.0681482 0.0614815 0.102363 0.0971314 0.0897981 0.0586054 0.0512721 0.0724887 0.0511553 0.0723551 0.0923551 0.0240345 0.0419017 0.023235 0.0389192 0.0362526 0.0640556 0.0447222 0.053043 0.0544762 0.00514285 0.0547013 0.023368 0.0127101 0.00604344 0.002 0.0193333 0.038 0.014 0.0646667 0.0273291 0.0659957 0.00475668 0.0327567 0.0197565 0.0604232 0.0243679 0.0137868 0.0351201 0.0280011 0.0433345 0.0640452 0.0300452 0.0783422 0.0269166 0.0655832 0.0746644 0.0653311 0.0462402 0.0889069 0.0848149 0.0581482 0.0396967 0.0657981 0.0584647 0.0806054 0.0466054 0.0944887 0.0904887 0.0756884 0.0743551 0.0733678 0.0565684 0.0305684 0.0715859 0.0175859 0.0433889 0.0487222 0.043043 0.00180951 0.0284762 0.0400347 0.0107013 0.0160434 0.0560434 0.00866667 0.014 0.0333333 0.052 0.0406667 0.0633333 0.00266667 0.0613307 0.0199974 0.00141616 0.0174162 0.0635371 0.00639973 0.000399727 0.0455499 0.00488328 0.0385712 0.0679046 0.0385398 0.0373058 0.0506391 0.0796742 0.0290076 0.0862506 0.0769173 0.0390037 0.080337 0.0922064 0.0728639 0.0475306 0.0658841 0.0385507 0.0498576 0.0391909 0.0747404 0.0287404 0.0193874 0.0633786 0.0680452 0.0479891 0.0333224 0.0591437 0.0351437 0.0253749 0.0233516 0.0500182 0.0433341 0.0286675 0.0333333 0.00266667 0.026 0.0206667 0.008 0.0546667 0.0426667 0.012 0.0206667 0.0253307 0.0386641 -0.000583845 0.0180828 0.0148705 0.0430664 0.0117331 0.0348833 0.0588833 0.0219046 0.0619046 0.0672064 0.0739724 0.0773058 0.0663409 0.0756742 0.0329173 0.0702506 0.056337 0.0356703 0.0515398 0.0475306 0.0921973 0.0698841 0.0605507 0.0791909 0.0325242 0.0787404 0.0600737 0.0173874 0.0127119 0.0373786 0.0213224 0.00998911 0.0244771 0.0251437 0.0613749 0.00335158 0.0540182 0.0140008 0.00733414 0.062 0.0106667 0.0233333 0.0213333 0.00866667 0.0286667 0.048 0.0126667 0.0373333 0.008 0.0286667 0.0146788 0.0506788 0.00342056 0.0616249 0.0422916 0.0569995 0.0156662 0.0634172 0.0247505 0.00231719 0.0395236 0.00352362 0.00689509 0.0588951 0.0112404 0.0152404 0.0451201 0.00445342 0.0551764 0.0159346 0.0459346 0.0395062 0.0155062 0.0491714 0.0138381 0.0320064 0.058673 0.0111392 0.0568819 0.0508819 0.0137888 0.0384554 0.0417665 0.0564331 0.00730582 0.0506667 0.0553333 0.0326667 0.016 0.038 0.0486667 0.01 0.00333333 0.0206667 0.0433333 0.056 0.00733333 0.0346667 0.0126667 0.0626667 0.0420121 0.0173454 0.0654206 0.0102916 0.00962493 0.0636662 0.0616662 0.0527505 0.0227505 0.0303172 0.068857 0.0435236 0.00489509 0.0242284 0.0519071 0.0132404 0.0357868 0.0391201 0.0591764 0.00726795 0.0146013 0.00883954 0.0555062 0.0625048 0.0305048 0.0653397 0.0320064 0.0151392 0.0102153 0.0255486 0.0011221 0.0377888 0.0644331 0.0504331 0.00730582 0.0613333 0.026 0.0593333 0.0533333 0.0286667 0.056 0 0.0626667 0.048 0.0246667 0.004 0.0493333 0.014 0.002 0.0426667 0.0106667 0.0106667 0.0453333 0.0266667 0.0366667 0.0153333 0.0506667 0.0106667 0.0433333 0.002 0.06 0.0326667 0.000666667 0.0486667 0.00872106 0.0207211 0.036784 0.00278398 0.045998 0.0159999 0.0659999 0.054 0.006 0.0173333 0.0253333 0.04 0.0153333 0.0646667 0.044 0.06 0.0466667 0.00533333 0.038 0.0126667 0.0386667 0.0206667 0.0446667 0.066 0.006 0.0566667 0.0526667 0.018 0.00266667 0.01 0.0626667 0.0246667 0.0273333 0.048 0.0546667 0.0613333 0.0266665 0.0119999 0.0153329 0.0480423 0.0613756 0.0414725 0.0474725 0.0470685 0.0157352 0.0501972 0.0469629 0.0542963 0.0379683 0.0373016 0.0605411 0.0352077 -0.00124382 0.0367562 0.00611569 0.057566 0.00023269 0.0172625 0.0525958 0.0329906 0.012324 0.00765338 0.01032 0.0294604 0.0250444 0.0197111 0.0508271 0.0368271 0.0566707 0.0246707 0.0253332 0.002 0.0406667 0.0306667 0.022 0.000666667 0.0213333 0.0153333 0.0633333 0.022 0.056 0.05 0.00666667 0.008 0.014 0.0173333 0.0126665 0.0419999 0.0566663 0.0373756 0.0560423 0.0534725 0.0581392 0.0190685 0.0290685 0.000197173 0.0302963 0.00229628 0.0399683 0.0546349 0.0172077 0.0652077 0.0334228 -0.00324382 0.0127824 0.0102327 0.00223269 0.0292625 0.0459292 0.00299064 0.000323976 0.03432 0.03232 0.0227937 0.0477111 0.0310444 0.0528271 0.0194937 0.0526707 0.026004 0.0273332 0.000666667 0.0426667 0.0593333 0.0633333 0.048 0.0573333 0.0126667 0.012 0.0413333 0.0426667 0.0346667 0.0573318 0.00133185 0.00533281 0.00466614 0.0660553 0.0280553 0.0421266 0.0514099 0.0520766 0.0239735 0.0659735 0.057475 0.037475 0.0648682 0.0463396 0.0223396 0.0321297 0.0421297 0.0155453 0.0302119 0.0170672 0.00640055 0.0486861 -0.00542185 0.0499115 -0.00124688 0.0207531 0.0331157 0.0557824 0.0223863 0.029053 -4.58836e-05 0.00657038 0.0605704 0.0489482 0.0602815 0.0554868 0.0621534 0.041876 0.0512786 0.0479453 0.0546035 0.0399368 0.0633333 0.0426667 0.06 0.0646667 0.042 0.0333333 0.0193333 0.0546652 0.0659985 0.00799947 0.00399947 0.030722 0.0260553 0.0461266 0.0574099 0.0654099 0.0433069 0.0406402 0.0381416 0.0508083 0.0422015 0.0530063 0.0463396 0.0421297 0.0287964 0.0575453 0.0068786 0.0150672 0.0457339 0.0280194 0.0285782 -0.00608851 0.0267531 0.0427531 0.054449 0.0611157 0.0437197 0.0297197 0.00928745 0.0645704 0.00790371 0.0496149 0.0462815 0.0594868 0.0028201 0.00720936 0.0532786 0.00394529 0.0586035 0.0386035 0.0346667 0.0126667 0.006 0.0373333 0.0253333 0.058 0.00666667 0.0339911 0.0286577 0.00115545 0.00648878 0.0597833 0.0311166 0.0661192 0.047664 0.00899732 0.00461353 0.0419469 0.0167842 0.0181175 0.0632592 0.0528885 0.0208885 0.00379315 0.0324598 0.0521023 0.0594357 -0.00790562 -0.000572282 0.04326 0.0686586 0.0353253 0.0247351 0.0234018 0.0314483 0.068115 0.0278544 0.0705211 0.00592637 0.0196631 0.0356631 0.0384675 0.0478008 0.00475983 0.0267598 0.0525203 0.0158726 0.0138726 0.0137967 0.0524634 0.00214184 0.0208085 0.0346667 0.024 0.048 0.01 0.000666667 0.0586577 0.0293244 0.0571554 0.0598221 0.0504499 0.0511166 0.0261192 0.0349973 0.00766399 0.0279469 0.0519469 0.0187842 0.0134509 0.00992588 0.0175552 0.0635552 0.0384598 0.0417931 0.010769 0.0321023 -0.00257228 -0.00523895 0.0259267 0.0139919 0.0353253 0.0774018 0.0360684 0.0494483 0.0247816 0.0678544 0.0571877 0.026593 0.0563298 0.0649965 0.0398008 0.0371341 0.0660932 0.0560932 0.0578536 0.0318726 0.0545393 0.00913008 0.0464634 0.0548085 0.000141836 0.0446667 0 0.028 0.0453333 0.00333325 0.0433152 0.0279819 0.0577906 0.0317906 0.0627614 0.0620947 0.0378871 0.0394963 0.0514963 0.030616 0.0392826 0.0129224 0.0529224 0.0128823 0.0240602 0.00539354 -0.0344423 -0.0404423 -0.00894049 -0.00894049 -0.000177685 -0.0448444 -0.0618531 -0.0151073 -0.0491073 0.00876698 -0.00656635 -0.0140677 0.022599 0.0305235 0.0418568 -0.0175647 0.0203392 -0.0129941 0.0320646 0.0213979 -0.0141232 0.0358768 0.0283251 -0.00138037 0.011953 0.0231391 0.00180579 0.0518305 0.0524971 0.0385465 0.000546527 0.0233333 0.0186666 0.00333325 0.0399819 0.0486486 0.0631239 0.0077906 0.00342807 0.0300947 0.0238871 0.0521629 0.00349626 0.046616 0.000615964 0.00625574 0.0142557 0.0108823 0.0340602 0.0233935 0.0155577 -0.00710895 -0.0122738 -0.0242738 -0.033511 -0.000177685 -0.0225198 -0.031774 0.00689267 -0.0365663 -0.0318997 0.00793234 0.0159323 0.0185235 0.00252349 0.0391019 -0.0169941 0.00233919 0.00339789 0.0320646 -0.0107899 -0.00945658 0.0143251 0.0552863 0.0152863 0.0344725 0.0424725 0.0198305 0.0611638 0.0225465 0.0538799 0.01 0.066 0.0213333 0.0265894 0.0265894 0.0419833 0.03065 0.0104515 0.0244515 0.0177107 0.00355299 0.0168863 0.0374696 0.034803 0.0303468 -0.0169866 0.0214828 -0.0348557 0.0264776 -0.0316458 -0.0529792 -0.0941981 -0.0728648 -0.121716 -0.0737155 -0.147222 -0.11399 -0.119323 -0.0797058 -0.0897058 -0.0681934 -0.0541934 -0.0298496 0.0128171 -0.0165041 -0.00698531 -0.0123186 -0.0449868 -0.0616534 -0.0197959 -0.00312925 -0.0209066 -0.0103127 -0.000312693 0.0233904 0.0107237 0.013997 0.0193303 0.0172864 0.0426197 0.00533333 0.0579993 0.012666 0.0176588 0.0283255 0.0154401 0.0401068 0.0291019 0.00976857 0.0231424 0.0372756 0.0179423 0.0154072 0.0267405 0.0129672 0.00563383 0.0410328 0.00785512 0.0158551 -0.0582724 -0.00960571 -0.0995139 -0.0541806 -0.110923 -0.0635893 -0.0709376 -0.075748 -0.0810813 -0.0430219 -0.0110219 0.015098 -0.0162354 -0.00202633 0.017307 -0.0378752 -0.0531646 -0.0611646 -0.0375249 -0.0208583 -0.0157234 -0.0277234 -0.0342307 -0.0240758 0.0299242 -0.0104992 0.00150079 0.0601622 0.0181622 0.054912 0.0542454 0.0133333 0.0419993 0.0473327 0.00832547 0.0223255 0.0607734 0.0481068 0.00776857 0.0204352 0.0544758 0.020609 -0.0127244 -0.0159261 0.0280739 0.0376338 -0.0203662 -0.00230052 0.0191885 0.00118845 -0.040939 -0.0722724 -0.0555139 -0.0548473 -0.0809226 -0.0909226 -0.068271 -0.0450813 -0.081748 -0.0176885 -0.0410219 -0.0295687 -0.022902 -0.00335966 0.0286403 -0.00854188 -0.0124979 -0.0484979 -0.0681916 -0.00619161 -0.0397234 -0.0437234 -0.0102307 0.00659088 -0.00207579 -0.00983254 0.0288341 0.0354956 0.0108289 0.0402454 0.0382454 0.0506802 0.0467555 0.0160888 0.00368247 0.0443491 0.0592277 0.0172277 0.0330144 0.0470144 0.01335 0.00677073 0.0261041 4.25061e-05 0.0280425 -0.0274175 0.0332492 0.0417733 -0.0047146 0.0546187 0.0267887 -0.0205446 -0.0497063 -0.0497063 -0.0318039 -0.0104706 -0.0385703 -0.00644746 0.0102192 0.028661 -0.00400566 0.00700697 -0.020993 -0.0456252 -0.00495855 -0.00817224 -0.0272088 0.00279125 -0.0152277 0.0127723 -0.0489982 -0.0783316 -0.0295754 -0.0561708 -0.0401708 -0.0243988 -0.0130654 0.0539854 0.0313188 0.0208804 0.0288804 0.0633469 0.0240888 0.00408882 0.0136825 0.0650158 0.026561 0.0478943 0.0183477 0.00501437 0.0426834 0.0374374 0.0454374 0.0380425 0.0240425 -0.00408412 0.0292492 0.03244 0.0579521 0.0092854 0.0341221 0.0034554 -0.0357063 -0.0170396 -0.00847057 -0.0144706 -0.00857027 -0.0351141 -0.0391141 -0.00733899 -0.00667232 0.0203403 0.0163403 -0.0249586 -0.0536252 -0.0161722 0.0247912 -0.00654208 -0.012561 -0.0138944 -0.0596649 -0.0796649 -0.0795754 -0.0655041 -0.0261708 -0.0130654 0.0269346 -0.00268122 0.0246521 0.00421371 0.00621371 0.00466858 0.019868 0.0292013 0.0515145 0.0668478 0.0625179 0.0565179 0.000513079 -0.00348692 -0.020162 0.0233063 -0.0253603 0.0358908 -0.000775817 0.0356033 0.0336033 0.00402062 0.0101026 -0.048564 -0.0132476 -0.028581 -0.0282523 -0.0522523 -0.0635342 -0.0842009 -0.00851931 -0.0068232 -0.0068232 0.0402788 0.0276122 0.0402638 0.0182638 0.0192763 -0.0120571 -0.0401391 0.0255523 0.018219 -0.0147629 -0.0380963 -0.0641027 -0.0107693 -0.0444146 -0.0512562 -0.0845895 -0.0373035 0.00936317 0.0053757 0.0293757 0.0545821 0.00591547 0.0660019 0.0132013 0.0392013 0.00951445 0.0621811 0.0565179 0.0291845 0.0431797 0.0285131 0.0391714 0.0213063 0.0153063 0.0132242 0.0205575 -0.00172999 0.0149367 -0.0239794 -0.0498974 0.00476932 -0.0232476 -0.0132476 -0.020919 -0.066919 -0.0255342 -0.0515342 -0.019186 0.00184346 0.0265101 0.0296122 0.000278847 -0.00773622 0.0489305 -0.0347237 -0.0133904 -0.0441391 -0.0104477 -0.0171144 0.0139037 -0.0194296 -0.011436 -0.0627693 -0.0604146 -0.0312562 -0.0792562 -0.0446368 -0.0326368 -0.000624304 0.042709 0.0639155 0.00991547 0.0240571 0.0246033 0.0579366 0.00944004 0.0327734 0.0571057 0.0231057 0.00562857 0.0462952 0.00475604 -0.00410666 0.0432267 -0.0179385 0.0173948 -0.0376595 -0.0629929 -0.0123499 -0.0355586 -0.0442253 -0.0501143 0.00988572 0.005428 -0.0299053 0.0348366 0.0248366 0.0514086 0.0310403 0.0343736 0.00487381 0.0368738 0.0239961 0.0366628 -0.0127887 0.0225446 -0.0116186 0.0260988 0.0440988 0.0723512 0.0316845 0.0278542 -0.00814576 -0.0351571 -0.00408972 -0.0240897 0.0212234 -0.0327766 0.0343773 -0.00828941 0.0164936 0.0518269 0.0467309 0.0060691 0.0347358 0.0671379 0.0571379 0.0744871 0.0298204 0.0491418 0.0644751 0.0196274 -0.0133167 0.0166833 0.0193321 -0.0353345 -0.0254781 -0.0201448 -0.0507942 -0.0164812 -0.0351479 -0.0297555 -0.0177555 0.00157282 -0.0110938 -0.0228522 -0.0568522 -0.0178711 -0.0108855 0.0171145 -0.00180351 -0.00713685 0.0221094 -0.00389057 0.0206196 0.00995296 -0.0269458 0.0337518 0.0317518 0.0455434 0.0548768 0.00713346 0.00313346 0.0456965 -0.00548913 0.0178442 0.037862 0.051862 0.0542315 0.00423151 0.0193953 0.0287287 0.0627309 0.0234024 0.0540691 0.0251379 0.0644713 0.0604871 0.0478204 0.0418085 0.0371418 0.0296274 0.0240166 0.00934994 -0.0440012 -0.00266787 -0.0374781 -0.0201448 -0.00546083 -0.00448121 0.0175188 0.0135779 0.0202445 -0.00776051 0.00490616 -0.0341856 -0.0335189 -0.0678711 0.00444786 0.0311145 0.0275298 0.0535298 0.0181094 0.0307761 -0.0127137 -0.0293804 -0.00761248 0.0284185 0.0250852 0.0548768 0.0862101 0.0251335 0.0364668 -0.00897018 0.0391775 0.0405109 0.051862 -0.0108047 0.0535648 0.0315648 0.0213953 0.0647287 0.0140184 0.0659932 0.0659932 0.0550413 0.0303747 0.0348275 0.0701609 0.0597828 0.0397828 -0.000857135 0.0012627 -0.031404 -0.0150404 0.00695962 -0.0247229 -0.00738959 0.0164413 0.00300351 -0.00566316 0.0344435 0.00844345 -0.0179635 -0.0566302 -0.0966868 -0.12202 -0.166094 -0.147379 -0.158713 -0.0239203 0.00741301 -0.00735294 0.0346471 -0.0239639 -0.0246306 0.0314683 -0.0107078 -0.0207078 0.0128853 0.0168853 0.0301265 0.0227932 0.0232184 0.0428915 0.00355815 0.0373757 0.0353757 0.00760572 0.0502724 0.0558275 0.0424942 0.0373518 0.0319932 0.0653265 0.0643747 0.0503747 0.0508275 0.0334942 0.0784494 0.0271161 -0.0175238 0.0052627 0.010596 0.0129596 -0.0163737 -0.0427229 -0.00672293 -0.0262254 0.0190035 0.0110035 -0.00155655 0.0377768 -0.0486302 -0.0059635 -0.12202 -0.0846868 -0.173427 -0.159379 -0.142046 -0.030587 0.00741301 0.0039804 -0.0200196 -0.0386306 -0.0459639 0.024135 -0.0220411 0.0366256 0.0228853 0.0302186 0.0194598 0.0621265 0.0552184 0.0328915 0.0302248 0.044709 -0.00462434 0.0362724 0.00160572 0.00916083 0.0364942 0.0366822 0.00521795 0.0305513 0.0319887 0.027322 0.0472376 0.0232376 0.0046074 0.0346074 0.0253312 -0.00860724 -0.0212739 0.0127315 0.0200649 0.00656029 0.00389362 0.0308292 0.0450159 0.0363492 0.0437485 0.0357485 -0.0722263 -0.0355597 -0.170978 -0.206978 -0.284453 -0.207131 -0.223798 -0.0541519 -0.0801519 -0.0232105 -0.0378772 -0.0508187 -0.0508187 -0.0672959 -0.0313914 -0.00939135 0.0161002 0.0194335 0.0304596 0.0664596 0.0462067 0.0441945 0.0548611 0.0179733 0.0019733 0.0210346 0.0610346 0.0540208 0.0106874 0.0206822 0.0318846 0.0558846 0.045322 0.0206553 0.0472376 0.0572376 0.0186074 0.0472741 -0.00733547 0.00539276 -0.0279406 0.0113982 0.0160649 0.029227 0.021227 0.0374959 0.0323492 0.0723492 0.0410818 0.0457485 -0.0282263 -0.0275597 -0.215645 -0.175645 -0.310453 -0.182465 -0.180465 -0.0654853 -0.0668186 -0.00254383 -0.0105438 -0.0328187 -0.066152 -0.0446292 -0.0367247 -0.0133914 0.0321002 0.00543349 0.0797929 0.0517929 0.0682067 0.0548611 0.0335278 0.0113066 0.01264 0.040368 0.0250346 0.0200208 0.0300208 0.0117961 0.0121565 0.0634898 0.0198232 0.0404899 0.0658997 0.0338997 4.75398e-05 -0.00328579 0.0137136 0.0305939 -0.0127394 0.0397873 0.058454 0.0319565 0.0572899 0.1078 0.0896186 0.121619 0.0268153 0.0508153 -0.106513 -0.102513 -0.320222 -0.292889 -0.352754 -0.266471 -0.221804 -0.0516577 -0.0323244 0.0203014 0.0416348 -0.0582301 -0.00556345 -0.0585085 -0.0132383 -0.00257165 0.0620161 0.00934942 0.0383728 0.0703728 0.0803698 0.0990223 0.0703556 0.0336961 0.0290294 0.0079884 0.0366551 0.00335198 0.0620187 0.0564628 0.0414898 0.0348232 0.0611565 0.00448988 0.009233 0.061233 0.0340475 0.0240475 -0.0102864 0.00926061 -0.00407272 0.0631207 0.0371207 0.0219565 0.0399565 0.0971331 0.122952 0.125619 0.0501486 0.0408153 -0.149179 -0.151846 -0.307555 -0.321555 -0.387421 -0.236471 -0.225804 -0.0363244 -0.0329911 0.0129681 0.0469681 -0.00956345 -0.00556345 -0.0625085 0.00876168 0.0127617 0.0253494 0.0126828 0.0677061 0.0470395 0.0763698 0.0943556 0.0763556 0.0403627 0.0303627 0.0606551 0.0179884 0.035352 0.00735198 0.0120013 0.0207448 0.0147448 0.0397041 0.0437041 0.0484204 0.0544204 -0.021609 -0.00960903 -0.0286351 0.0145002 0.0158336 0.0352537 0.0679203 0.0757581 0.0717581 0.134913 0.123039 0.109706 -0.0495798 -0.0315798 -0.175894 -0.219228 -0.391636 -0.403636 -0.449786 -0.268399 -0.265065 -0.0420322 -0.0286988 0.082207 0.026207 0.035366 0.0506993 0.0614953 0.0733867 0.0493867 0.089363 0.0820297 0.0382292 0.103563 0.0998442 0.0493174 0.0566507 0.0367644 0.0174311 0.00310323 0.0297699 0.0446739 0.0266739 0.0473338 0.0559916 0.0213249 0.0487353 0.0120686 0.0482525 0.0275858 0.00657852 0.0385785 -0.0344036 0.0535384 0.0402051 0.0959647 0.0686314 0.0940737 0.0867403 0.136425 0.0822778 0.0656111 -0.0756176 -0.0449509 -0.226962 -0.180296 -0.333217 -0.365217 -0.359692 -0.138204 -0.148871 0.025348 0.0126813 0.127339 0.118673 0.0709879 0.0809879 0.117658 0.0643532 0.0830198 0.0763738 0.0723738 0.0956713 0.0696713 0.130411 0.0712866 0.0366199 0.0073513 0.016018 0.0533266 0.02866 0.0652161 0.0332161 0.0560005 0.0239916 0.0233249 0.0300686 0.00606861 0.0142525 0.0495858 0.0272452 0.0292452 0.026263 0.0508717 -0.00312827 0.0639647 0.059298 0.0900737 0.108074 0.101092 0.120278 0.0716111 -0.0329509 -0.0609509 -0.176296 -0.219629 -0.339217 -0.367217 -0.337692 -0.106871 -0.110204 0.0300147 0.00934799 0.116673 0.108006 0.0529879 0.0449879 0.101658 0.0736865 0.0663532 0.0743738 0.0877071 0.080338 0.050338 0.105078 0.10062 0.0999532 0.018018 0.0546846 0.03266 0.02266 0.0158828 0.0618828 0.0453337 0.0659766 0.0579766 0.0603328 0.00766616 0.0270009 0.0070009 0.0463018 0.0463018 0.0468257 0.0489855 0.0716521 0.0395854 0.0795854 0.0749581 0.0522914 0.0658428 0.0071186 0.0184519 -0.114538 -0.0725377 -0.217709 -0.182376 -0.25953 -0.258863 -0.246502 -0.0481522 -0.0474855 0.0699683 0.0219683 0.0536358 0.109636 0.0471891 0.0645224 0.0723272 0.0254989 0.0661655 0.0394598 0.0501265 0.0725965 0.0385965 0.100586 0.0794865 0.0308198 0.00186959 0.0192029 0.0392752 0.00127521 0.0604371 0.0157705 0.0400004 0.05931 0.04531 0.0156662 0.0369995 0.0336676 0.0050009 0.0449685 0.0236351 0.0374924 0.0329855 0.0549855 0.0362521 0.0909188 0.0642914 0.0922914 0.11251 0.0517853 0.0151186 -0.105871 -0.0605377 -0.224376 -0.219709 -0.274197 -0.300863 -0.191835 -0.0654855 -0.0321522 0.0279683 0.0646349 0.0943024 0.0803024 0.0591891 0.0551891 0.106994 0.0461655 0.0701655 0.0587931 0.0541265 0.0952632 0.0432632 0.0619194 0.0641532 0.0534865 0.0605363 0.0158696 -5.81239e-05 0.0426085 0.0571038 0.0124371 0.0273333 0.0192776 0.056611 0.0219248 0.00992483 0.0244101 0.0384101 0.0532652 0.0205985 0.053563 0.0469425 0.0496092 0.0854793 0.0414793 0.00562355 0.0376236 0.0221143 -0.0660991 -0.0640991 -0.160842 -0.106175 -0.223682 -0.220349 -0.246539 -0.189205 -0.133745 0.000608015 -0.0160587 0.0641238 0.0061238 0.0239492 0.0606159 0.0676014 0.0602681 -0.00529957 -0.0111095 0.0142238 0.0170063 0.0250063 0.0818832 0.0365499 0.0197406 0.00811493 0.00811493 0.0324367 0.0584367 0.0346815 0.0353482 0.0313143 0.000647634 0.042 0.064611 0.048611 0.0165915 0.0332582 0.0517434 0.0537434 0.0225985 0.0545985 0.077563 0.0469425 0.0536092 0.0934793 0.0554793 0.0276236 0.0249569 0.0154477 -0.0440991 -0.0507657 -0.104842 -0.116842 -0.197682 -0.234349 -0.223872 -0.213872 -0.101079 -0.0240587 0.022608 0.0694571 0.0501238 0.0812826 0.0866159 0.0449347 0.0489347 0.0227004 -0.0164428 0.0315572 0.0630063 0.0610063 0.0338832 0.0425499 0.00440728 0.0647816 0.0101149 0.0124367 0.0237701 0.0433482 0.00601484 0.037981 0.0193143 0.0480141 0.000607775 0.0479411 0.0284282 0.00442816 0.0185439 0.0445439 0.0108773 0.0342106 0.0297401 0.0295136 0.0368469 0.0654271 0.0514271 -0.00242461 -0.00975794 -0.0582899 -0.145557 -0.146224 -0.162101 -0.204768 -0.180901 -0.204234 -0.143175 -0.0985087 -0.0302796 0.00603861 0.00403861 0.0175073 -0.0211594 0.0626678 0.0293345 0.000196049 0.0468627 0.0151575 0.00199094 -0.0120091 0.079125 0.0784584 0.0180418 0.00670849 -0.0211703 0.0456438 0.0109771 0.0568729 0.0522062 0.0073972 0.0240639 0.0285943 0.033261 0.0353474 0.0366078 0.0419411 0.0624282 0.0150948 0.0245439 0.0492105 0.0495439 0.0115439 0.0364067 0.0375136 0.0395136 0.0580937 0.0247604 -0.0124246 -0.0204246 -0.0649566 -0.141557 -0.113557 -0.203435 -0.202101 -0.202234 -0.234234 -0.133842 -0.117842 -0.0676129 -0.0186281 0.0347053 0.00817392 -0.0244927 0.0246678 0.0366678 0.0468627 0.034196 -0.00684246 0.0239909 0.0119909 0.075125 0.019125 0.0307085 0.0433752 -0.0291703 0.0203104 0.0256438 0.0402062 0.0295395 0.0073972 0.0180639 0.0385943 0.0385943 0.00866667 0.0054622 0.0501289 0.0565433 0.04721 0.049237 0.0679036 0.0329163 0.0169163 0.0558367 0.0298442 0.0418442 0.0286333 0.00996661 -0.0702052 -0.0222052 -0.0877936 -0.156358 -0.115025 -0.165465 -0.112132 -0.082962 -0.0536287 -0.0435242 -0.0561909 -0.00154953 -0.0142189 -0.0375522 0.0156753 -0.0123247 0.0312742 -0.0100592 -0.0146719 -0.00600521 -0.00691827 -0.0195261 0.0391406 -0.0135172 0.0258161 0.00647591 -0.0481908 0.0131474 0.0155131 0.0221797 0.0268152 0.0208152 -0.000705497 0.0519612 0.016674 0.00534064 0.0653333 0.0653973 0.036064 0.0552029 0.0638696 0.00434602 0.0310127 -0.0103333 -0.000333313 0.0379238 0.00229238 -0.0257076 -0.0776639 -0.0823305 -0.10185 -0.0958496 -0.100739 -0.0936544 -0.0649878 -0.0766489 -0.0433155 -0.0150186 -0.0296853 -0.0148526 0.017814 -0.0208066 0.0314459 -0.0138874 -0.0056957 0.00363763 -0.0320094 -0.030676 0.0115321 0.0248654 -0.00788433 -0.0161744 -0.0181744 -0.0426016 -0.0272683 -0.0199208 -0.0232541 -0.0280221 0.0519613 0.0466279 0.0599712 0.0166378 0.0102682 0.0469348 0.0459992 0.0566659 0.0553333 0.0593973 0.00273065 0.0585363 0.0465363 0.0376794 0.0216794 0.0123334 0.011 0.0392572 -0.0323743 0.00495905 -0.0416639 -0.0349972 -0.0565163 -0.0538496 -0.0754059 -0.0683211 -0.0769878 -0.0799822 -0.0453155 -0.0150186 0.023648 0.031814 0.0124807 0.0191934 -0.0145541 0.000112601 -0.0056957 -0.0336957 0.017324 0.021324 -0.0204679 0.00553207 -0.004551 -0.0315077 -0.000174379 -0.0539349 -0.0172683 -0.00325413 -0.0545875 -0.0140221 0.0219613 0.0366279 0.00930451 0.0546378 0.0602682 0.0389348 0.0539992 0.0319992 0.034 0.0365984 0.061265 0.052308 0.0476413 0.0570136 0.0236802 0.0140039 0.00333718 -0.0109008 -0.0378717 -0.0385383 -0.0763316 -0.065665 -0.0913535 -0.0473535 -0.0608352 0.0046676 -0.0113324 0.0132 0.0452 0.0396102 0.0582769 0.00420834 -0.0237917 -0.00156853 -0.00318094 0.00481906 0.0167253 0.013392 -0.0073036 0.0046964 -0.00139998 -0.0374 -0.0410157 -0.0442034 -0.0588701 -0.0036541 -0.0456541 -0.00627165 -0.00560498 0.0149734 -0.000436412 0.0408969 0.0406798 0.0406798 0.0107342 0.0387342 0.0106674 0.053334 0.0493333 0.021265 0.029265 0.0596413 0.0609746 0.0383469 0.0310136 0.0113372 0.0340039 0.00243256 -0.0238717 -0.0165383 -0.0803316 -0.0649983 -0.0886868 -0.0933535 -0.0368352 -0.0206657 0.0066676 0.0158667 0.0245334 0.0716102 0.0669435 0.0362083 0.0335417 -0.0115685 0.0281524 0.0188191 -0.00260801 0.0320587 0.0160297 0.0066964 -0.0220666 0.00126669 -0.060349 -0.0568701 -0.0455368 -0.0076541 -0.0356541 0.016395 -0.0282716 0.0129734 0.0642303 0.0468969 0.0173465 0.0533465 0.0347342 0.0180675 0.0460007 0.013334 0.0366667 0.0486632 0.0353299 0.00345812 0.0434581 0.0639656 0.0199656 0.037411 0.00941104 -0.000535646 -0.0516224 -0.0569558 -0.0342365 -0.0455698 -0.0717687 -0.0384354 0.0251856 -0.00526058 -0.00726058 0.00953627 -0.0051304 -0.0327629 -0.0174295 -0.0676139 -0.0722806 -0.0607594 -0.0505992 -0.0119326 -0.0806512 -0.0646512 -0.0457398 -0.0237398 -0.0566315 -0.0372981 -0.0448762 -0.0266804 -0.0333471 -0.0203841 -0.00838414 -0.0175607 -0.0122274 -0.0123209 0.0532835 0.0459501 0.00263375 0.0459671 0.0303463 0.0556796 0.0620013 0.0406679 0.0146667 0.0506632 0.0146632 0.0214581 0.0154581 0.0152989 0.0219656 0.035411 0.000744372 0.00013102 -0.0622891 -0.0502891 -0.0429032 -0.0322365 -0.0164354 -0.0084354 0.0191856 0.0154061 -0.0119272 -0.0484637 -0.0337971 -0.0567629 -0.0327629 -0.0842806 -0.0889473 -0.0567594 -0.0299326 -0.0519326 -0.0679845 -0.0813179 -0.0784065 -0.0297398 -0.0799648 -0.0606315 -0.0748762 -0.0280137 -0.0233471 -0.0230508 -0.0190508 -0.030894 -0.00222737 0.00167911 0.0512835 0.0299501 0.0593004 0.0333004 0.0156796 0.033013 0.0480013 0.0506679 0.000666667 0.034 0.0653333 0.0545475 0.0332142 0.0558723 0.014539 0.0343979 0.0557312 -0.000947618 -0.0199567 -0.02729 -0.0336907 -0.033024 -0.0189003 -0.0229003 0.0105956 -0.0257286 -0.00706194 -0.102018 -0.0940176 -0.124029 -0.138695 -0.10648 -0.149147 -0.129705 -0.081748 -0.124415 -0.0727935 -0.0761268 -0.0693674 -0.0687008 -0.0771992 -0.0598658 -0.0789843 -0.00589331 -0.0258933 -0.00521136 -0.00187802 -0.0255337 -0.00753368 0.00371422 0.000951851 0.0536185 0.0626506 0.00998392 0.0575064 0.022173 0.04 0.0646667 0.0453333 0.0106667 0.042 0.053788 0.0404547 0.0413386 0.0140053 0.0309054 0.0555721 0.0535996 0.00413992 0.0181399 0.048372 0.0617053 0.0584805 0.0624805 0.0190452 0.0531754 0.0145087 0.00384743 0.00918076 -0.0519253 -0.036592 -0.0731854 -0.0125187 0.0139469 -0.0217913 -0.0237913 -0.00715654 -0.0318232 -0.0142767 0.0210566 -0.0538181 -0.0331514 -0.04665 -0.0276629 -0.0136629 0.0225176 -0.00614904 -0.0163065 0.0350268 0.0137059 0.0471752 0.0511752 0.0569937 0.004327 0.0333237 0.042657 0.0246667 0.022 0.0206667 0.0173333 0.00866667 0.049788 0.0504547 0.0246719 0.0300053 0.0155721 0.0535721 0.0249329 0.0341399 0.0481399 0.00570529 0.0510386 0.0351471 0.0151471 0.0450452 0.039842 0.041842 0.0205141 -0.0128192 -0.064592 -0.074592 -0.0731854 -0.0405187 0.0166136 -0.0311246 -0.034458 -0.0598232 -0.00848988 0.00572328 -0.0322767 -0.0358181 -0.0131514 -0.00931671 -0.00299623 -0.0269962 0.013851 -0.00748238 -0.0183065 0.0156935 0.0290393 0.0485086 0.0038419 0.014327 0.000326997 0.0599903 0.0413237 0.0593333 0.0513333 0.04 0.0133333 0.00266667 0.034552 0.012552 0.0468966 0.0455633 0.0565821 0.0245821 0.0579875 0.040449 0.0377823 0.0785425 0.0405425 0.0323552 0.0643552 0.0476837 0.0551445 0.0531445 0.0812242 0.0212242 0.0727577 0.026091 0.0722235 0.0988902 0.146147 0.0747322 0.111399 0.0637395 0.0284062 0.0593196 0.0359863 -0.0145885 -0.0052552 -0.0125409 -0.00897351 0.00235983 0.030238 0.0169046 0.00671297 0.0440463 0.018062 0.00136502 0.027365 0.0453267 0.06466 0.0439913 0.00332467 0.0166667 0.00933333 0.062 0.056 0.0246667 0.0198853 0.052552 0.0468966 0.0162299 0.0145821 0.0125821 0.0366542 0.0297823 0.0137823 0.0152092 0.0718759 0.0703552 0.0910219 0.0943504 0.0604778 0.0471445 0.0765575 0.0278909 0.0807577 0.0334243 0.101557 0.0648902 0.108814 0.0547322 0.0973989 0.0564062 0.0384062 0.058653 0.0279863 -0.0152552 -0.00258853 -0.00454093 0.0196932 0.0263598 0.00957131 0.0215713 -0.0126204 -0.00128703 0.00339536 0.0260317 0.057365 0.0439934 0.0373267 0.010658 0.0519913 0.056 0.0153333 0.0546667 0.0206667 0.00933333 0.008 0.052 0.0200057 0.029339 0.0296445 0.0296445 0.0458388 0.0494473 0.00411393 0.0219974 0.0253307 0.0818024 0.0591357 0.0269179 0.0530457 0.0330457 0.0417133 0.0137133 0.0423006 0.0283006 0.0712297 0.103896 0.0883866 0.0409547 0.0982881 0.0395326 0.0375326 0.0806872 0.0153539 0.0234754 0.0221421 0.0282503 0.0398507 -0.0161493 0.0226835 -0.00798312 0.0568009 0.0194675 0.034016 0.045342 0.0600086 0.0133353 0.052002 0.0486667 0.06 0.06 0.012 0.0626667 0.0266667 0.036 0.06 0.00266667 0.0506723 0.0620057 0.0229778 0.0363111 0.0285055 0.0134473 0.0581139 0.0626641 0.0553307 0.0731357 0.0224691 0.0769179 0.0397124 0.0523791 0.0557133 0.05638 0.0716339 0.0743006 0.10123 0.084563 0.0770533 0.0529547 0.0882881 0.0448659 0.0181993 0.0293539 0.0166872 0.0368088 0.0154754 0.0435837 0.00251737 0.000517375 0.0466835 0.0420169 0.0261342 0.0628009 0.0346827 0.0566753 0.0126753 0.00866866 1.99669e-06 0.058 0.0373333 0.062 0.0626667 0.062 0.04 0.004 0.0266667 0.0113333 0.0226667 0.0613333 0.0400138 0.0573471 0.0420906 0.0343362 0.0463362 0.0582874 0.0316207 0.0199306 0.0445973 0.0564366 0.055021 0.0336877 0.0230797 0.022413 0.0669547 0.0456214 0.0457781 0.0304447 0.0346886 0.064508 0.0578413 0.054911 0.016911 0.0501753 0.0448419 0.0104626 0.00712923 -0.0050249 0.0177334 0.0464001 0.0419052 0.0192386 0.0461427 0.00347603 0.0180167 0.038 0.0546667 0.0433333 0.0653333 0.00466667 0.0273333 0.054 0.0513333 0.0173333 0.0153333 0.0213333 0.00466667 0.0333333 0.0433333 0.0153333 0.0246805 0.0233471 0.0660906 0.0283362 0.0276696 0.0176207 0.0169541 0.0119306 0.0445973 0.00376989 0.0196877 0.0236877 0.056413 0.00574634 0.026288 0.0636214 0.0677781 0.0497781 0.0133552 0.0531746 0.0738413 0.0322443 0.012911 0.0428419 0.0661753 0.0437959 -0.00353743 0.0609751 0.0377334 0.0470668 0.0272386 0.0132386 0.025476 0.0528094 0.0400167 0.0513333 0.0413333 0.0413333 0.0213333 0.0386667 0.016 0.0286667 0.0373333 0.0513333 0.0593333 0.0453333 0.0313333 0.0206667 0.0606667 0.0113333 0.02 0.0166667 0.0593333 0.03 0.00533333 0.0193333 0.0213333 0.0486667 0 0.034 0.036 0.0593333 0.062 0.024 0.0566749 0.0300082 0.0326852 0.0340186 0.0100006 0.0633334 0.034 0.0213333 0.056 0.0133333 0.000666667 0.00133333 0.008 0.026 0.0393333 0.0453333 0.0633333 0.00866667 0.0586667 0.0106667 0.0366667 0.0326667 0.0113333 0.0366667 0.0326667 0.0106667 0.0526667 0.0553333 0.0493333 0.014 0.00266667 0.0193333 0.0233333 0.062 0.0306667 0.03 0.00400055 0.00600055 0.0180016 0.0506211 0.0206211 0.0358757 0.0612091 0.0227508 0.0134174 0.00428724 0.0466762 0.0300096 0.0104307 0.055764 0.00810641 0.0394397 0.00325081 0.0145841 0.0662684 0.0599424 0.0192757 0.021197 0.055197 0.0413337 0.0053337 0.0586474 0.0486474 0.00409838 0.0549143 0.029581 0.0121659 0.0108326 0.0186993 0.0640327 0.0513338 0.0166667 0.0546667 0.0553333 0.03 0.0293333 0.0153333 0.016 0.0286667 0.0586667 0.0633333 0.052 0.026 0 0.0266667 0.004 0.0380006 0.0180006 0.021335 0.0526211 0.0359545 0.0165424 0.0365424 0.0307508 0.0247508 0.0609539 0.00734288 0.0453429 0.0570974 0.0390974 0.0207731 -0.000560255 0.0352508 0.00191747 0.0562684 0.0566091 -0.00272428 0.027197 0.0285304 0.0300004 0.0320004 0.0133141 0.0633141 0.00943171 0.005581 0.0142477 0.0194993 0.0248326 0.043366 0.017366 0.0393338 0.0233333 0.0633333 0.062 0.0213333 0.0286667 0.064 0.0206667 0 0.01 0.0606667 0.0106667 0.00200108 0.0306677 0.0140059 0.0220059 0.00872829 0.049395 0.00783213 0.0351607 0.0184941 0.0559558 0.0599558 0.0055121 0.0495121 -9.56097e-05 0.0324815 0.0278149 -0.00115388 -0.00182055 0.0227748 0.0367748 0.00874137 0.0280747 0.0497004 0.0263187 0.0129854 0.0148377 0.010171 0.0445792 0.0632458 0.0378275 0.0651608 0.0426554 0.0605737 0.0345737 0.0490213 0.0130213 0.0268705 0.0155372 0.0629752 0.063192 0.00785864 0.017873 0.0292064 0.0273333 0.0473333 0.05 0.02 0.0506667 0.0346667 0.0213333 0.0253344 0.0400011 0.0066726 0.0473393 0.035395 0.0420616 0.0551655 0.0631607 0.0218274 0.0172891 0.0419558 0.0555121 0.0188454 0.00457106 -0.00151846 0.0231482 0.0481795 0.0168461 0.0394414 -0.00322524 0.00407471 0.0447414 0.0150337 0.0309854 0.00698536 0.054171 0.00617102 0.0639125 0.00657916 0.0138275 0.0198275 0.0259888 0.0205737 0.0152404 0.0230213 0.033688 0.0222039 0.0448705 0.00630857 0.00919198 0.000525312 0.0645397 0.00320635 0.0653333 0.0573333 0.0233333 0.056 0.0186667 0.004 0.0633333 0.0193039 0.00330389 0.0506874 0.0146874 0.0252418 0.0359085 0.0461095 0.00920309 0.0252031 0.0143046 0.0669713 0.0323485 0.0350151 0.0403354 0.0174781 0.0241448 -0.0150387 0.0469613 0.0198853 0.0198853 0.00789771 -0.0114356 0.0210119 0.0267042 0.0187042 0.0367186 0.0453853 0.0639984 0.040665 0.030398 0.0750646 0.0353731 0.0200077 0.027341 0.0765505 0.0765505 0.0484104 0.071077 -1.23168e-05 0.0511673 0.0405007 0.0380513 0.00471798 0.0540241 0.0540241 0.064 0.022 0.00933333 0.0513333 0.036 0.0133039 0.0633039 0.0360207 0.00535408 0.00724184 0.0252418 0.0241095 0.0572031 0.00920309 0.059638 0.0469713 0.0556818 0.0336818 0.0503354 0.000811471 0.00347814 0.045628 0.0369613 0.0372186 -0.00278138 0.0398977 0.0205644 0.0156786 0.00403751 0.0127042 0.0607186 0.0487186 0.0399984 0.0393317 0.0390646 0.0537313 0.0467064 0.0226744 0.0800077 0.0745505 0.0625505 0.0477437 0.0297437 0.0179877 0.0231673 0.011834 0.0293846 0.046718 0.00269079 0.0520241 0.0586667 0.052 0.0546667 0.0293329 0.0473329 0.0292241 0.0525574 0.0586017 0.0132683 0.0324356 0.0584356 0.0255866 0.0577467 0.0130801 0.013096 0.0697627 0.0637115 0.0197115 0.0652984 0.0334416 0.0427749 0.0186085 0.0219418 -0.0331377 0.0168623 -0.0246715 -0.0240048 0.00379845 -0.00682453 -0.0254912 0.0192856 -0.0107144 0.0191203 -0.0102131 0.0217713 0.0271046 -0.0312422 0.0135411 -0.0384589 -0.0145746 -0.0112412 -0.00630329 0.02103 0.0406751 0.0394023 0.00140227 0.0563547 0.00702137 0.0123502 0.0176836 0.0446434 0.0339767 0.052 0.0266662 0.0479996 0.0338908 0.0412241 0.0406017 0.0166017 0.0331022 0.0137689 0.0109199 0.0364134 0.0644134 0.0177627 0.0277627 0.0730449 0.0370449 0.0159651 0.0421082 0.0501082 0.0212751 -0.00405818 0.0128623 0.0168623 0.0119952 -0.00800481 -0.0202015 -0.0181579 -0.0208245 -0.0180477 0.0159523 -0.0108797 -0.00154641 0.026438 0.0211046 -0.0205756 0.0115411 0.000207725 0.0167588 0.0107588 -0.01097 0.0243634 0.0386751 0.0434023 0.0520689 0.0490214 0.0243547 0.0296836 0.0296836 0.05531 0.02131 0.048 0.0166667 0.0173333 0.0133114 0.0386447 0.033381 0.0580476 0.0239435 0.0339435 0.0159281 0.0225117 0.00984504 0.0513436 0.0640103 0.068262 0.0649287 0.0461839 0.0295265 -0.0104735 -0.0273399 -0.0113399 -0.00619353 -0.00819353 -0.0827204 -0.0727204 -0.0721677 -0.0649693 -0.085636 -0.0141126 -0.0781126 -0.0550407 -0.0370407 -0.0578276 -0.0131609 -0.0299237 -0.0719704 -0.0339704 -0.0694122 -0.0767456 0.00878001 0.00944667 -0.0135597 -0.00745664 0.0245434 0.047971 0.047971 0.0602766 0.00494324 0.0153252 0.00999184 0.0486667 0.0113334 0.0540001 0.0450495 0.0430495 0.00866305 0.0513297 0.0134105 0.00541046 0.0332836 0.0549789 0.0536455 0.0372296 0.00522957 -0.00444653 -0.00777986 0.0150239 -0.0593615 -0.0100282 -0.0232117 -0.0352117 -0.00996685 -0.0306335 -0.0851811 -0.0591811 -0.0199067 -0.00125498 -0.00392165 -0.0114591 0.0125409 0.00398953 -0.0340105 -0.0655294 -0.0241961 -0.0546366 -0.0884694 -0.0444694 -0.0725301 -0.0485301 -0.011034 -0.0497006 -0.0026199 0.0245925 -0.00874084 0.0350975 0.0037642 0.0595559 0.0462226 0.0192914 0.0259581 0.0593333 0.0366668 0.0280001 0.0303828 0.00171616 0.0213297 0.0219964 0.0120771 0.0560771 0.048617 0.0476455 0.0503122 0.0312296 0.0105629 0.00822014 -0.0224465 0.00835725 -0.0526949 -0.00536153 -0.0498784 -0.0185451 -0.0539668 -0.0233002 -0.0298478 -0.0271811 -0.05324 0.0180783 7.83486e-05 -0.0341257 -0.0187924 -0.0213438 -0.0300105 -0.0341961 -0.0108628 -0.0859699 -0.0451361 -0.0518028 -0.0618634 -0.0385301 -0.0177006 -0.0343673 0.0160468 0.00992583 0.0192592 0.0224309 0.0077642 0.0362226 0.0175559 0.0386247 0.0246247 0.00466201 0.0658834 0.0418834 0.0367504 0.0254171 0.0253285 0.0346618 -0.00175657 0.00557677 -0.021074 -0.0399783 -0.032645 -0.0156945 -0.0363612 -0.0260087 -0.0740087 -0.109505 -0.0717674 -0.107101 -0.0702864 -0.0776198 -0.0937118 -0.0977118 -0.0444965 -0.0231632 -0.00432124 -0.0523364 -0.0390031 0.0112825 0.0192825 0.0167894 -0.00121063 -0.0729371 -0.0249371 -0.0929498 -0.042273 -0.096273 -0.0459709 -0.0766376 -0.0682513 -0.0682513 -0.0230004 0.0268816 0.018215 0.0047659 0.00609923 -0.00205899 0.019941 0.024489 0.0498224 0.046662 0.03455 0.05055 0.0200837 0.00141706 0.0579952 0.0119952 0.0309101 0.0309101 -0.0197407 0.00868832 -0.030645 -0.0190278 -0.0770278 -0.025342 -0.0660087 -0.0615053 -0.0711007 -0.102434 -0.0756198 -0.0849531 -0.0370452 -0.0717118 -0.0371632 -0.0778298 -0.0276546 -0.0456697 0.000330268 0.0246158 0.0306158 0.041456 0.0387894 -0.0462704 -0.0136038 -0.0676165 -0.0376064 -0.074273 -0.0579709 -0.0433042 -0.0735847 -0.0295847 0.0029996 -0.00445171 0.0355483 -0.0012341 -0.00256744 0.0546077 0.0352743 0.0518224 0.0498224 0.0446067 0.0424697 0.0351363 0.0469306 0.00426398 0.0050276 0.0436943 0.005736 0.00440267 -0.0489849 -0.0287933 -0.0381266 -0.107587 -0.108254 -0.108742 -0.124075 -0.119308 -0.105415 -0.105415 -0.123514 -0.135514 -0.103214 -0.0812145 -0.0683123 -0.0583123 -0.12073 -0.0948562 -0.122856 -0.122198 -0.132198 -0.125323 -0.0779894 -0.0900043 -0.141338 -0.0973221 -0.115757 -0.115757 -0.0469711 -0.0609711 -0.0267735 -0.0354402 -0.0507605 0.0101097 0.00610966 0.0149 0.000899982 0.0325894 -0.00474389 0.0186737 0.0246737 0.01594 0.033803 0.0384697 0.0529306 0.00559732 0.0230276 -0.00963907 0.023736 -0.0169307 -0.0263182 -0.0747933 -0.0287933 -0.0529207 -0.0589207 -0.117409 -0.124075 -0.135308 -0.0980819 -0.144749 -0.130181 -0.120181 -0.0498811 -0.0545478 -0.0563123 -0.0509789 -0.0713971 -0.122856 -0.13819 -0.0935317 -0.094865 -0.0926561 -0.111989 -0.106671 -0.102671 -0.0666555 -0.0570908 -0.0944241 -0.0469711 -0.0789711 -0.0634402 -0.0581069 -0.0200938 0.023443 -0.036557 0.00423332 0.0122333 0.0425894 0.0245894 0.0186737 0.0526737 0.036514 0.00268529 0.0220186 0.033334 -0.00666595 -0.00614564 -0.00214564 -0.0294605 -0.0407939 -0.0194761 -0.0433404 -0.0886737 -0.0980049 -0.126672 -0.101714 -0.0770474 -0.124221 -0.107669 -0.159669 -0.0619294 -0.0852627 -0.0670441 -0.0963774 -0.119009 -0.138343 -0.227219 -0.209583 -0.260917 -0.144359 -0.174359 -0.112089 -0.149422 -0.0902078 -0.0682078 -0.0814139 -0.111594 -0.108927 -0.048415 -0.107748 -0.0355219 -0.0815219 -0.0398834 -0.0188069 -0.0174736 0.00565114 -0.000348858 0.0372272 0.0578939 0.0251518 0.0604851 0.0331559 0.0591992 0.0111992 0.0186217 0.0252884 -0.00549862 0.0318347 -0.0310828 -0.00374949 -0.0623202 -0.0868725 -0.0535392 -0.0969698 -0.11697 -0.15562 -0.160953 -0.183573 -0.104918 -0.118251 -0.0631041 -0.0451041 -0.0893178 -0.0786511 -0.191659 -0.186326 -0.251893 -0.222709 -0.282042 -0.172911 -0.166911 -0.0281005 -0.0254338 -0.00928615 -0.0426195 -0.0635535 -0.0505024 -0.0598357 -0.0633453 -0.0573453 -0.0142536 -0.0542536 -0.0160353 -0.0137755 0.0175579 0.00750606 -0.0051606 0.0197674 0.0251007 0.0637697 0.0364364 0.0504892 0.00786589 0.0405326 0.0166217 0.0226217 0.00850138 0.00983472 -0.0404162 -0.00908282 -0.0429869 -0.0855392 -0.0922058 -0.125637 -0.15297 -0.14762 -0.144286 -0.174907 -0.113584 -0.0989176 -0.0364374 -0.0637707 -0.0486511 -0.0426511 -0.156326 -0.126326 -0.259893 -0.265376 -0.288042 -0.122244 -0.144244 -0.0374338 -0.0347672 -0.0439528 -0.0532861 -0.0368868 -0.0658357 -0.0418357 -0.050012 -0.036012 -0.0229203 -0.0389203 -0.0393686 0.0115579 0.0142245 0.0235061 -0.00782727 0.0297674 0.00576741 0.0264364 0.0057697 0.0113021 0.0100514 0.00271811 0.00968034 -0.00298632 0.0206529 0.0139862 -0.00969372 0.00163962 -0.039573 -0.0426961 -0.0266961 -0.0825791 -0.0605791 -0.139055 -0.0857215 -0.075115 0.00490667 -0.03576 -0.0359618 -0.0299618 -0.0605926 -0.0925926 -0.20112 -0.227787 -0.27664 -0.259737 -0.219737 -0.106316 -0.114982 0.00546526 0.0261319 -0.014143 -0.020143 -0.0124654 -0.0441848 -0.0395181 -0.0621945 -0.0675278 -0.0160727 -0.021406 0.0200383 -0.0214686 0.0225314 0.0547482 0.0380815 0.0581989 0.0228656 0.0163957 0.0630623 0.0546354 0.0100514 0.00338477 0.038347 0.010347 -0.0193471 0.0159862 -0.0503604 -0.0516937 -0.0249064 -0.0400294 -0.0813628 -0.0885791 -0.0805791 -0.118388 -0.126388 -0.055115 -0.0170933 -0.04376 -0.0319618 -0.00729514 -0.0392593 -0.0325926 -0.178454 -0.208454 -0.24664 -0.239737 -0.221737 -0.0683157 -0.099649 0.0227986 0.0281319 -0.00614297 -0.0188096 -0.047132 -0.0161848 -0.00351814 -0.0355278 -0.0301945 -0.041406 -0.0107393 -0.00662835 -0.00480194 0.00586473 0.0387482 0.0327482 0.0555323 0.0568656 0.0163957 0.0510623 0.00500313 0.0550913 0.0130913 0.0491836 0.0371836 0.0205855 -0.0174145 0.00965637 -0.0243436 0.0139636 -0.0576445 -0.0389778 -0.0413779 -0.0773779 -0.0506401 -0.0646401 -0.0023418 0.0512326 0.0272326 0.0218612 0.00652789 0.000379091 0.0230458 -0.0873953 -0.0980619 -0.204274 -0.14315 -0.14915 -0.0465767 -0.0599101 0.0586614 0.0459947 0.0136146 0.010948 0.00600333 -0.0287445 -0.00674446 -0.0140996 0.0152337 0.00267573 9.0675e-06 0.00429069 0.0348558 0.0441892 0.0433939 0.0367272 0.0613226 0.0473226 0.039576 0.0269094 0.0170031 0.0410913 0.0184246 0.0398503 0.0311836 0.0365855 0.0385855 -0.013677 -0.0070103 -0.0313697 -0.0176445 0.00435554 -0.0273779 -0.0887113 -0.0619734 -0.0606401 -0.0210085 0.0438993 0.0118993 0.0291946 -0.00747211 -0.00495424 -0.0116209 -0.129395 -0.122729 -0.193608 -0.16115 -0.206483 -0.0379101 -0.0372434 0.015328 0.0566614 -0.031052 -0.015052 0.01667 -0.00674446 0.00725554 -0.015433 -0.023433 0.0280091 0.00600907 0.029624 0.0321892 0.0201892 0.0113939 0.0140606 0.0499893 0.0473226 0.0129094 0.033576 0.0153179 0.00549734 0.0188307 0.0100379 0.0487045 0.00545798 0.00879131 0.0312283 0.00922832 0.0193282 0.0174575 0.0387908 0.00854131 -0.0174587 0.0402659 0.0375993 0.102383 0.0393249 0.0393249 0.037754 0.0670873 0.0241828 0.0355161 -0.0517998 -0.0311331 -0.128408 -0.0959667 -0.0886334 -0.00420613 -0.0168728 0.0888958 0.0622291 0.0406808 0.00468076 -0.0251293 0.0238061 -0.00952719 0.000634342 0.0199677 -0.00983176 0.0048349 0.0132995 -0.0134363 0.00856368 0.0494523 -0.00121436 0.0276047 0.0316047 0.0178632 0.0465299 0.0573179 0.0568307 0.054164 0.0513712 0.00270454 0.0247913 0.019458 -0.0207717 0.00656165 0.0526615 0.0534575 0.00679083 0.0145413 0.0318746 0.0189326 0.0762659 0.060383 0.0586582 0.0586582 0.0190873 0.0230873 0.0435161 0.0388495 -0.0597998 -0.0691331 -0.109741 -0.0993001 -0.150633 -0.0535395 -0.0555395 0.0748958 0.0308958 0.0473474 0.0360141 0.0262041 0.00113948 -0.0321939 -0.00869899 0.0306343 0.0515016 0.0288349 0.0112995 0.023897 0.0392303 0.046119 0.000118975 0.00693803 0.0556047 0.0118632 0.0331966 0.0553331 0.0204519 0.0544519 0.0027893 0.0461226 0.0450705 0.0237372 -0.0067487 -0.012082 0.0214931 0.051076 0.0664093 0.0703077 0.0363077 0.100621 0.0726211 0.113001 0.118139 0.114139 0.0588768 0.123543 0.0495416 0.0502083 -0.037922 -0.0352554 -0.129737 -0.177693 -0.12636 -0.0158932 -0.0105598 0.0334169 0.0587502 -0.0288685 -0.000201792 -0.0534059 0.021753 -0.034247 -0.00151838 0.015815 -0.0307654 -9.87354e-05 -0.019566 -0.013054 0.014946 0.0485379 -0.00212873 0.0426712 0.0500045 0.0373189 0.0286523 0.0626665 0.0260373 0.00070395 0.00675354 0.0460869 0.00463412 0.0506341 0.00888133 0.0602147 0.0666623 0.00916359 -0.0128364 0.0652157 0.0745491 0.060148 0.082148 0.0847816 0.105317 0.0699837 0.0742151 0.0542151 -0.0320885 0.0099115 -0.0611353 -0.0984687 -0.214508 -0.172249 -0.170249 -0.0384781 -0.0451448 0.014468 0.0111346 -0.0800189 -0.0540189 -0.132126 -0.0362434 -0.02891 -0.0348287 -0.054162 -0.0522719 -0.00827186 -0.0372592 0.010565 0.00589835 0.0437763 0.000442952 0.0368646 0.0548646 0.0395154 0.0188487 0.0426665 0.058704 0.054704 0.0360869 0.0620869 0.000634125 0.0406341 0.0602147 0.0322147 0.033329 0.0131636 0.00383025 0.0105491 0.0185491 0.0554813 0.110815 0.0787816 0.0779837 0.0646504 0.0595484 0.0628818 0.0279115 -0.0360885 -0.123802 -0.0931353 -0.235174 -0.194916 -0.190249 -0.0444781 -0.0411448 0.0118013 -0.0381987 -0.0713522 -0.0586855 -0.0767923 -0.0782434 -0.06891 -0.0414954 -0.0228287 0.00106148 0.00039481 -0.00725922 -0.00543499 0.0132317 0.0597763 0.0271096 0.058198 0.0608646 0.00884869 0.020182 0.045333 0.0480652 0.0240652 0.0523027 0.049636 0.0557495 0.0670828 0.0562289 0.0115623 0.0221065 0.0664182 0.0304182 0.0280306 0.0760306 0.0550835 0.0430835 0.0268397 0.0876808 0.0816808 0.0263622 0.0590288 -0.0167587 -0.012092 -0.131114 -0.10978 -0.184704 -0.133946 -0.0892797 -0.0142538 -0.0115872 -0.017242 -0.0205753 -0.0434178 -0.0854178 -0.0914946 -0.0986562 -0.0993229 -0.0680383 -0.0453716 -0.0269197 -0.0442531 0.0171316 0.0475225 0.00752251 0.052284 0.0476173 -0.00124409 -0.000577426 0.0354012 -0.000598807 0.0626663 0.0473986 0.0287319 0.0643027 0.051636 0.0477495 0.0224162 0.00956225 0.0162289 0.0494398 0.0297516 0.0197516 0.0366973 0.051364 0.0730835 0.0544168 0.0701731 0.0956808 0.0690141 0.0783622 0.0423622 -0.00875865 -0.00609199 -0.102447 -0.0851138 -0.208037 -0.092613 -0.0852797 0.0157462 -0.000920501 -0.0145753 0.000757997 -0.0647512 -0.0894178 -0.086828 -0.0906562 -0.10399 -0.0453716 -0.0293716 -0.0755864 -0.0322531 0.0204649 0.0588558 0.00552251 0.00295064 0.0429506 0.0440892 -0.00724409 0.0580679 0.0460679 0.0113333 0.0460225 0.0360225 0.0273503 0.0633503 0.0142187 -0.00111465 0.0120325 0.0533659 -0.00390801 0.0313307 0.010664 0.0767209 0.0513875 0.0697689 0.104436 0.036983 0.0281143 0.0601143 0.00964273 -0.00435727 -0.0782984 -0.0629651 -0.186881 -0.136881 -0.132592 -0.0844008 -0.0324008 -0.0253889 0.0259445 0.0307364 0.0180697 -0.040904 -0.032904 -0.0867516 -0.0978302 -0.0404969 -0.0666 -0.0912666 -0.0276098 -0.0509431 0.0425361 0.0469972 0.0169972 0.053804 0.0344707 0.0120747 0.0547414 0.0492165 0.0365498 0.0473333 0.0246892 0.0560225 0.0413503 0.0206836 0.0522187 0.0288853 0.0513659 0.0560325 9.1989e-05 0.00133067 0.0413307 0.0340542 0.0307209 0.0611023 0.0864356 0.0703163 0.0427809 0.0254476 -0.00235727 0.00830939 -0.0796318 -0.0216318 -0.186214 -0.144214 -0.148592 -0.0504008 -0.0550674 0.0199445 0.0339445 0.0227364 0.0220697 -0.0195706 -0.00757065 -0.112085 -0.0771635 -0.0451635 -0.0766 -0.0359333 -0.00960976 -0.0489431 0.0318694 0.0343305 0.0116639 0.0224707 0.0331373 0.0454081 0.00674141 0.0392165 0.0438832 0.0126289 0.0653452 0.0106785 0.0360542 0.0120542 -0.0092952 0.0293715 0.0280742 -0.00125909 0.0355427 0.0330168 0.0196835 0.0133666 -0.00863341 0.00947342 0.0194734 0.000525909 0.0154108 0.00741076 -0.0360837 0.00724968 -0.0833314 -0.0533314 -0.109275 -0.121275 -0.122754 -0.0631111 -0.0377778 0.000637654 -0.016029 0.0620473 0.0353806 0.0114817 -0.0231849 -0.019648 -0.0541195 -0.0314528 -0.0494107 -0.020744 -0.0122604 -0.036927 0.00711206 -0.00468657 0.0433134 0.0567628 0.0474294 0.0359733 0.0613067 0.0419939 0.0266606 0.00862886 0.0486785 0.0500118 0.0607208 0.0413875 0.0200381 -0.00596187 0.0207409 0.0154076 -0.0231239 -0.0276499 -0.0129832 0.00936659 -0.0179667 0.0174734 -0.0258599 -0.0141408 -0.0145892 0.0134108 0.00258302 -0.0507503 -0.0813314 -0.0926647 -0.132608 -0.171275 -0.124754 -0.0384444 -0.0644444 -0.0146957 0.0373043 0.022714 0.0140473 -0.0278516 0.0188151 -0.021648 -0.0434528 -0.0501195 -0.0700773 -0.0294107 -0.0662604 -0.0275937 0.0291121 0.0366468 0.0439801 0.0234294 0.0440961 0.0359733 0.03064 0.0206606 0.0513272 0.00466667 0.0162185 0.0122185 0.0352694 0.0186027 0.0176442 0.0123109 0.0285704 0.0419037 0.0308565 0.0169912 -0.00834215 -0.0109781 -0.0256447 -0.0510821 -0.0677487 -0.0760218 -0.0744637 -0.0811304 -0.101707 -0.0823732 -0.101744 -0.0890771 -0.09227 -0.138937 -0.12408 -0.0415288 -0.0188621 0.0458797 0.0265464 0.0769038 0.0455705 0.0205902 0.0112569 -0.037719 0.0416463 0.00697962 -0.021038 -0.00703801 -0.0801494 -0.0234827 0.0119259 0.00469844 0.0400318 0.0366816 0.0553483 0.0288216 0.00748825 0.00468514 0.0200185 0.0313333 0.0293691 0.0333691 0.0102431 0.0529098 0.00731715 0.0133171 0.0306561 0.0166561 0.0272039 -0.0463752 -0.0470419 -0.0494637 -0.0841304 -0.0988037 -0.054137 -0.109268 -0.089071 -0.0637377 -0.0815661 -0.110233 -0.121481 -0.109481 -0.109794 -0.10646 -0.0809262 -0.0684533 -0.0397866 0.030685 0.0393517 0.0605327 0.0531994 0.0214286 -0.0185714 -0.0173176 0.0204511 -0.00421561 -0.0177301 -0.0270635 -0.0276849 -0.0203516 -0.0143512 0.0286108 0.0106108 0.0316513 0.0276513 0.00684395 0.0461773 0.00932762 0.0119943 0.0313333 0.00270248 0.0587025 0.0602431 0.0635765 0.0119838 0.0159838 0.0333228 0.0433228 -0.0114628 -0.0557086 -0.0470419 -0.0414637 -0.0774637 -0.0654704 -0.038137 -0.0866009 -0.113071 -0.0617377 -0.0915661 -0.0928994 -0.0621475 -0.0928142 -0.0671269 -0.111127 -0.103593 -0.05112 -0.00778662 0.0513517 0.024685 0.0398661 0.0825327 -0.000571421 -0.00190475 -0.0113176 0.0351177 -0.00288228 -0.0170635 0.00293655 -0.0423516 -0.0196849 -0.0390178 -0.00138917 0.00261083 0.0383179 0.000317934 0.0235106 0.00484395 0.0493276 0.034661 0.0246667 0.0446972 0.00669722 0.0450995 0.00176616 0.0181894 0.0635227 0.00779864 -0.000201363 -0.0206124 -0.0271787 -0.0191787 -0.0926155 -0.0552822 -0.0898265 -0.0711599 -0.134235 -0.0959868 -0.0806535 -0.0463147 -0.0589813 -0.0493488 0.00398452 -0.0452779 -0.0266113 -0.0547485 -0.0426943 -0.0826943 -0.0284989 -0.0398322 0.0104062 -0.0149272 -0.0282839 -0.0329505 -0.0183831 0.0229118 0.00357851 -0.0315113 -0.0208446 -0.000178378 -0.034845 -0.0422359 0.0620273 0.0300273 0.0281395 0.0461395 0.00800006 0.0053334 0.0153331 0.0139998 0.00866667 0.0313639 0.0220306 0.0204328 0.0237662 0.0261894 0.0101894 0.0577986 -0.0075347 0.0380543 -0.070512 -0.0291787 -0.0799488 -0.0452822 -0.0684932 -0.0944932 -0.128235 -0.0913202 -0.0686535 -0.0883147 -0.0323147 -0.0366821 -0.0133488 -0.0292779 -0.0332779 -0.0840818 -0.063361 -0.0406943 -0.0378322 -0.0418322 -0.0175938 -0.00492715 0.0163828 0.00571615 -0.00904981 -0.0190882 0.0295785 0.0171554 -0.0301779 -0.00151171 -0.010845 0.00576412 0.0313606 0.0500273 0.0588062 0.0514728 0.0193334 0.0433334 0.0546664 0.0366664 0.0466667 0.00333875 0.00133875 0.0508902 0.0482236 0.0248319 0.0028319 0.00126423 -6.91026e-05 0.0154633 -0.0163697 -0.00770308 -0.0441784 -0.0655118 -0.107547 -0.107547 -0.15114 -0.106479 -0.0804793 -0.0849587 -0.0516254 -0.0504623 -0.0804623 -0.102282 -0.0982823 -0.151273 -0.102468 -0.091801 -0.0936592 -0.0749925 -0.0547838 -0.0534505 0.0143166 -0.0383501 0.00985796 0.0137456 0.0164122 -0.0136805 0.0336528 -0.0258614 0.00213864 -0.0238275 0.0344529 0.0457862 0.0128004 0.0488004 0.0290902 0.00575691 0.0639995 0.0279995 0.058 0.0466721 0.0133387 0.0128902 0.0308902 0.0134986 0.0421652 0.0225976 0.0605976 0.0194633 -0.0350364 -0.0490364 -0.0368451 -0.0715118 -0.112214 -0.0575473 -0.14114 -0.077146 -0.111813 -0.0516254 -0.0849587 -0.0644623 -0.0397956 -0.0962823 -0.100282 -0.133273 -0.091801 -0.122468 -0.0529925 -0.0789925 -0.0581172 -0.0667838 -0.0250168 -0.0303501 0.011858 -0.00358777 0.00507889 0.00698617 0.0169862 -0.0358614 0.0181386 0.0255058 0.0277862 0.00711954 0.0521337 0.041467 0.0230902 0.0350902 0.00133287 0.00199954 0.0266667 0.0466667 0.0293333 0.0206095 0.0386095 0.0474645 0.0281312 -0.00623848 0.0350949 0.0104371 -0.0266369 0.00402981 -0.0419891 -0.0633224 -0.0822348 -0.0909014 -0.137146 -0.0887263 -0.128726 -0.0848696 -0.121536 -0.10852 -0.0751868 -0.165953 -0.113286 -0.112644 -0.105328 -0.138661 -0.0560044 -0.0940044 -0.026724 -0.00605735 0.0369115 0.0515782 0.000137303 -0.00606996 0.0225967 0.0416817 0.00168171 0.0166479 0.0259812 0.0190762 0.0440997 0.0314331 0.0333823 0.0313823 0.0355588 0.0482255 0.01 0.000666667 0.0166667 0.0166667 0.066 0.0435502 0.0642169 0.00437284 0.0503728 0.0183665 0.0443665 0.0324482 -0.014716 0.0059507 0.000805605 0.0208056 0.0123582 -0.0149751 -0.00303969 -0.0443026 -0.021636 -0.0416168 -0.0236168 -0.0867986 -0.0447986 -0.0494776 -0.0621442 -0.10706 -0.0513349 -0.0800016 0.0111807 -0.0248193 0.0232482 -0.0194185 -0.00388418 0.00544915 0.0374144 -0.0225823 -0.0105823 -0.00503739 0.0342959 0.047104 0.025104 0.0731567 0.020139 0.0414724 0.00884934 0.059516 0.0479927 0.039326 0.0653333 0.0473333 0.052 0.014 0.00133333 0.0388836 0.0122169 0.0543728 0.00103951 0.0363665 0.0436999 -0.0108851 0.0319507 -0.0140493 -0.0198611 -0.0185277 -0.0169751 0.00302487 -0.0110397 -0.023636 -0.0123026 0.00171656 -0.0436168 -0.0547986 -0.0787986 -0.108144 -0.0614776 -0.0597267 -0.0646683 -0.0786683 -0.0228193 -0.0321526 0.0332482 0.0185815 0.00478248 0.0414492 -0.00791897 0.020751 -0.0219156 0.0356293 0.0189626 0.015104 0.00310404 0.0338233 0.0134724 0.0348057 0.0548493 0.0328493 0.063326 0.00399266 0.052 0.0633333 0.0586667 0.0233333 0.000666667 0.024009 0.0166756 0.0636636 0.0489969 0.0426205 0.0486205 0.0426252 0.0248639 0.0128639 0.0284508 0.0477841 -0.0114506 0.0418827 -0.0138663 -0.0129755 0.0176912 -0.0485455 -0.0492121 0.00113911 -0.0235276 -0.0591223 -0.0371223 0.00738168 -0.0161831 -0.0021831 -0.0205107 0.0214893 -0.0209196 0.0310804 0.0378405 0.0111738 0.026834 0.0175824 0.012249 0.0420397 0.0660397 0.0178394 0.0371727 0.0583202 0.00185302 0.0425197 0.0286639 0.0606639 0.0533263 0.0373263 0.0333333 0.0493333 0.0246667 0.00666667 0.052 0.00467565 0.00867565 0.0583303 0.0249969 0.0119538 0.00795382 0.0252918 0.0581972 0.00686389 -0.00821586 0.0277841 -0.00211728 -0.00611728 0.00680041 0.0203579 -0.000975451 -0.0118788 -0.0272121 -0.0215276 -0.0528609 -0.0524557 -0.0264557 -0.0299517 -0.0195164 0.000483566 -0.0165107 -0.00517736 0.0264137 -0.0175863 0.0458405 0.0325072 0.0575006 0.0255824 0.0209157 0.0533731 0.0227064 0.0271727 0.0371727 0.0643202 0.061853 0.0445197 0.0186639 0.00666388 0.00999301 0.00799301 0.0446667 0.0353333 0.0186667 0.0533333 0.00266667 0.0326667 0.0126667 0.0660115 